{"learner":{"attributes":{"best_iteration":"176","best_score":"142.39499458187655","scikit_learn":"{\"_estimator_type\": \"regressor\"}"},"feature_names":["als_score","pair_pop","item_pop","away_id","home_id","away_strength","home_strength","days_since_ref","dow","month","user_total_bets","user_total_amt"],"feature_types":["float","float","float","int","int","float","float","int","int","int","int","float"],"gradient_booster":{"model":{"gbtree_model_param":{"num_parallel_tree":"1","num_trees":"227"},"iteration_indptr":[0,1,2,3,4,5,6,7,8,9,10,11,12,13,14,15,16,17,18,19,20,21,22,23,24,25,26,27,28,29,30,31,32,33,34,35,36,37,38,39,40,41,42,43,44,45,46,47,48,49,50,51,52,53,54,55,56,57,58,59,60,61,62,63,64,65,66,67,68,69,70,71,72,73,74,75,76,77,78,79,80,81,82,83,84,85,86,87,88,89,90,91,92,93,94,95,96,97,98,99,100,101,102,103,104,105,106,107,108,109,110,111,112,113,114,115,116,117,118,119,120,121,122,123,124,125,126,127,128,129,130,131,132,133,134,135,136,137,138,139,140,141,142,143,144,145,146,147,148,149,150,151,152,153,154,155,156,157,158,159,160,161,162,163,164,165,166,167,168,169,170,171,172,173,174,175,176,177,178,179,180,181,182,183,184,185,186,187,188,189,190,191,192,193,194,195,196,197,198,199,200,201,202,203,204,205,206,207,208,209,210,211,212,213,214,215,216,217,218,219,220,221,222,223,224,225,226,227],"tree_info":[0,0,0,0,0,0,0,0,0,0,0,0,0,0,0,0,0,0,0,0,0,0,0,0,0,0,0,0,0,0,0,0,0,0,0,0,0,0,0,0,0,0,0,0,0,0,0,0,0,0,0,0,0,0,0,0,0,0,0,0,0,0,0,0,0,0,0,0,0,0,0,0,0,0,0,0,0,0,0,0,0,0,0,0,0,0,0,0,0,0,0,0,0,0,0,0,0,0,0,0,0,0,0,0,0,0,0,0,0,0,0,0,0,0,0,0,0,0,0,0,0,0,0,0,0,0,0,0,0,0,0,0,0,0,0,0,0,0,0,0,0,0,0,0,0,0,0,0,0,0,0,0,0,0,0,0,0,0,0,0,0,0,0,0,0,0,0,0,0,0,0,0,0,0,0,0,0,0,0,0,0,0,0,0,0,0,0,0,0,0,0,0,0,0,0,0,0,0,0,0,0,0,0,0,0,0,0,0,0,0,0,0,0,0,0,0,0,0,0,0,0,0,0,0,0,0,0],"trees":[{"base_weights":[-1.3304801E-1,-1.5297643E1,8.959556E1,-1.874582E1,1.2784365E1,2.459316E2,1.792402E1,-2.0826029E1,-1.2218743E1,8.400756E1,3.9695165E0,1.8043484E2,9.636653E2,2.7828554E1,-1.0986376E0,-1.4380738E1,-2.136063E1,2.9897814E1,-1.41362E1,2.3760338E2,4.1211388E1,2.7355118E1,-6.426957E0,4.770212E2,1.251135E2,3.9069174E2,2.3568188E3,3.906291E1,2.911947E0,8.862089E0,-9.2647915E0,-1.8066288E1,-1.1161969E0,-2.2092196E1,-1.9321156E1,1.3646114E2,9.587938E0,5.7264957E0,-1.6726248E1,1.4040012E3,1.8702344E2,2.7554205E2,3.7398403E1,1.3167162E2,1.0515751E1,2.661737E1,-8.847824E0,1.6977435E2,7.833301E2,3.4977988E2,8.64659E1,2.2982234E2,9.126962E2,1.3631301E3,3.1586416E3,1.3171513E1,7.4753174E1,-1.1162178E1,2.0316568E1,7.7058897E0,1.048654E2,-2.6572554E0,-1.5017632E1,-1.0050048E0,-6.9332427E-1,2.0161245E0,-4.9163356E-1,-1.0653458E0,-1.1325178E0,-6.693811E-1,-1.038593E0,2.7081273E0,7.9708886E0,1.8260864E0,-1.331693E-1,2.6898556E0,-1.4138083E-1,-3.6919075E-1,-9.371955E-1,3.1177465E1,1.13145226E2,2.1295288E1,7.173063E0,6.765962E0,2.086997E1,4.2142253E0,1.2901329E0,2.0684454E0,1.2760172E1,2.4544923E-1,3.8489015E0,1.5402162E0,-1.4471245E-1,-1.0936662E-1,-7.455959E-1,1.5609314E1,5.520408E0,7.4796295E1,1.4952974E0,1.0520424E1,5.442091E1,6.0444865E0,9.588329E-1,2.295905E1,1.0192642E1,2.6159958E1,5.0436253E1,5.500476E1,1.3660371E2,1.18422134E2,2.2618633E2,4.1233206E0,1.6112927E-1,8.611564E0,1.2495981E0,-9.271075E-1,-5.5610385E-2,2.6841285E0,-4.2761508E-1,7.246731E-1,-3.5126632E-1,5.455577E-1,1.6022747E1,-2.0053644E-1,1.2912477E0,-5.080723E-1,-9.292793E-1],"categories":[],"categories_nodes":[],"categories_segments":[],"categories_sizes":[],"default_left":[0,0,0,0,0,0,0,0,0,0,0,0,0,0,0,0,0,0,0,0,0,0,0,0,0,0,0,0,0,0,0,0,0,0,0,0,0,0,0,0,0,0,0,0,0,0,0,0,0,0,0,0,0,0,0,0,0,0,0,0,0,0,0,0,0,0,0,0,0,0,0,0,0,0,0,0,0,0,0,0,0,0,0,0,0,0,0,0,0,0,0,0,0,0,0,0,0,0,0,0,0,0,0,0,0,0,0,0,0,0,0,0,0,0,0,0,0,0,0,0,0,0,0,0,0,0,0],"id":0,"left_children":[1,3,5,7,9,11,13,15,17,19,21,23,25,27,29,31,33,35,37,39,41,43,45,47,49,51,53,55,57,59,61,63,65,67,69,71,73,75,77,79,81,83,85,87,89,91,93,95,97,99,101,103,105,107,109,111,113,115,117,119,121,123,125,-1,-1,-1,-1,-1,-1,-1,-1,-1,-1,-1,-1,-1,-1,-1,-1,-1,-1,-1,-1,-1,-1,-1,-1,-1,-1,-1,-1,-1,-1,-1,-1,-1,-1,-1,-1,-1,-1,-1,-1,-1,-1,-1,-1,-1,-1,-1,-1,-1,-1,-1,-1,-1,-1,-1,-1,-1,-1,-1,-1,-1,-1,-1,-1],"loss_changes":[7.527654E7,4.582703E6,8.9611944E7,5.72032E5,3.249271E6,1.1800728E8,1.0334626E6,1.09819E5,8.232525E5,3.7369968E6,1.1202655E6,3.7759736E7,1.6670963E8,1.009565E6,1.529215E5,1.1980219E5,4.3604E4,9.596355E5,5.01482E5,7.0529645E6,3.890893E5,2.489508E6,2.5542244E5,3.393571E7,1.6849154E7,1.2386422E7,4.4296864E7,2.2962552E6,2.7506606E5,9.320806E4,3.9226594E4,1.61040625E4,1.9327688E5,9.035E3,6.6854E4,1.2550575E5,1.23507766E5,4.6275375E5,1.6238525E5,1.940631E6,1.1876475E6,8.275925E4,2.3758781E5,2.1870282E6,4.5498625E5,2.7026062E4,1.2004639E5,1.5042425E6,9.713179E7,2.9110324E7,3.842828E6,5.97329E5,7.81338E5,7.436776E6,2.4882528E7,9.938634E5,5.0646015E6,4.6038023E4,4.8400494E5,8.389276E4,1.99059E5,1.8684639E4,9.375445E3,0E0,0E0,0E0,0E0,0E0,0E0,0E0,0E0,0E0,0E0,0E0,0E0,0E0,0E0,0E0,0E0,0E0,0E0,0E0,0E0,0E0,0E0,0E0,0E0,0E0,0E0,0E0,0E0,0E0,0E0,0E0,0E0,0E0,0E0,0E0,0E0,0E0,0E0,0E0,0E0,0E0,0E0,0E0,0E0,0E0,0E0,0E0,0E0,0E0,0E0,0E0,0E0,0E0,0E0,0E0,0E0,0E0,0E0,0E0,0E0,0E0,0E0,0E0,0E0],"parents":[2147483647,0,0,1,1,2,2,3,3,4,4,5,5,6,6,7,7,8,8,9,9,10,10,11,11,12,12,13,13,14,14,15,15,16,16,17,17,18,18,19,19,20,20,21,21,22,22,23,23,24,24,25,25,26,26,27,27,28,28,29,29,30,30,31,31,32,32,33,33,34,34,35,35,36,36,37,37,38,38,39,39,40,40,41,41,42,42,43,43,44,44,45,45,46,46,47,47,48,48,49,49,50,50,51,51,52,52,53,53,54,54,55,55,56,56,57,57,58,58,59,59,60,60,61,61,62,62],"right_children":[2,4,6,8,10,12,14,16,18,20,22,24,26,28,30,32,34,36,38,40,42,44,46,48,50,52,54,56,58,60,62,64,66,68,70,72,74,76,78,80,82,84,86,88,90,92,94,96,98,100,102,104,106,108,110,112,114,116,118,120,122,124,126,-1,-1,-1,-1,-1,-1,-1,-1,-1,-1,-1,-1,-1,-1,-1,-1,-1,-1,-1,-1,-1,-1,-1,-1,-1,-1,-1,-1,-1,-1,-1,-1,-1,-1,-1,-1,-1,-1,-1,-1,-1,-1,-1,-1,-1,-1,-1,-1,-1,-1,-1,-1,-1,-1,-1,-1,-1,-1,-1,-1,-1,-1,-1,-1],"split_conditions":[9.308528E-1,7.859438E-1,3.3E2,4.5812768E-1,9.7E1,3.25E2,1.0333996E0,4.4E1,4.2E1,-1.08E2,3.32E2,-1.31E2,-4.5E1,8.04E2,1.0787326E0,1.92162E-1,2.5125414E-1,-1.27E2,7.151538E1,1.5E1,3E0,-1.36E2,6.916735E1,2.28E2,6.9E1,-5.9E1,7.274601E2,7.66E2,9.48E2,3.8147712E3,-8.7E1,6.0803447E-2,-1.41E2,-1.27E2,1.61E2,2E0,-7E1,1.54E2,1.61E2,8.784007E-1,4.681214E1,8.784007E-1,-8.1E1,8.784007E-1,3.25E2,9.94E2,-8.3E1,8.3806384E2,2.33E2,6E1,1.014231E0,-1.47E2,9.7666836E-1,1.5270646E3,6E0,3.32E2,7.73E2,9.11E2,9.94E2,8.04E2,5E0,3.0628948E3,5.62E2,-1.0050048E0,-6.9332427E-1,2.0161245E0,-4.9163356E-1,-1.0653458E0,-1.1325178E0,-6.693811E-1,-1.038593E0,2.7081273E0,7.9708886E0,1.8260864E0,-1.331693E-1,2.6898556E0,-1.4138083E-1,-3.6919075E-1,-9.371955E-1,3.1177465E1,1.13145226E2,2.1295288E1,7.173063E0,6.765962E0,2.086997E1,4.2142253E0,1.2901329E0,2.0684454E0,1.2760172E1,2.4544923E-1,3.8489015E0,1.5402162E0,-1.4471245E-1,-1.0936662E-1,-7.455959E-1,1.5609314E1,5.520408E0,7.4796295E1,1.4952974E0,1.0520424E1,5.442091E1,6.0444865E0,9.588329E-1,2.295905E1,1.0192642E1,2.6159958E1,5.0436253E1,5.500476E1,1.3660371E2,1.18422134E2,2.2618633E2,4.1233206E0,1.6112927E-1,8.611564E0,1.2495981E0,-9.271075E-1,-5.5610385E-2,2.6841285E0,-4.2761508E-1,7.246731E-1,-3.5126632E-1,5.455577E-1,1.6022747E1,-2.0053644E-1,1.2912477E0,-5.080723E-1,-9.292793E-1],"split_indices":[0,0,10,0,10,10,0,10,10,7,10,7,7,10,0,0,0,7,2,10,10,7,2,10,10,7,2,10,10,1,7,0,7,7,10,8,7,10,10,0,2,0,7,0,10,10,7,1,10,10,0,7,0,1,8,10,10,10,10,10,8,1,10,0,0,0,0,0,0,0,0,0,0,0,0,0,0,0,0,0,0,0,0,0,0,0,0,0,0,0,0,0,0,0,0,0,0,0,0,0,0,0,0,0,0,0,0,0,0,0,0,0,0,0,0,0,0,0,0,0,0,0,0,0,0,0,0],"split_type":[0,0,0,0,0,0,0,0,0,0,0,0,0,0,0,0,0,0,0,0,0,0,0,0,0,0,0,0,0,0,0,0,0,0,0,0,0,0,0,0,0,0,0,0,0,0,0,0,0,0,0,0,0,0,0,0,0,0,0,0,0,0,0,0,0,0,0,0,0,0,0,0,0,0,0,0,0,0,0,0,0,0,0,0,0,0,0,0,0,0,0,0,0,0,0,0,0,0,0,0,0,0,0,0,0,0,0,0,0,0,0,0,0,0,0,0,0,0,0,0,0,0,0,0,0,0,0],"sum_hessian":[5.532E4,4.7323E4,7.997E3,4.2148E4,5.175E3,2.513E3,5.484E3,3.196E4,1.0188E4,5.69E2,4.606E3,2.304E3,2.09E2,3.606E3,1.878E3,2.45E3,2.951E4,4.43E2,9.745E3,1.23E2,4.46E2,1.417E3,3.189E3,3.61E2,1.943E3,1.49E2,6E1,2.485E3,1.121E3,8.46E2,1.032E3,1.917E3,5.33E2,2.1712E4,7.798E3,7E1,3.73E2,1.124E3,8.621E3,4E0,1.19E2,6E0,4.4E2,1.96E2,1.221E3,2.17E2,2.972E3,1.81E2,1.8E2,2.84E2,1.659E3,1.15E2,3.4E1,2.8E1,3.2E1,1.441E3,1.044E3,6.2E2,5.01E2,8.37E2,9E0,4.81E2,5.51E2,1.289E3,6.28E2,9.2E1,4.41E2,9.037E3,1.2675E4,1.534E3,6.264E3,1.6E1,5.4E1,1.16E2,2.57E2,1.69E2,9.55E2,1.532E3,7.089E3,3E0,1E0,1.7E1,1.02E2,4E0,2E0,8.6E1,3.54E2,1.14E2,8.2E1,1.127E3,9.4E1,1.9E2,2.7E1,1.417E3,1.555E3,5.2E1,1.29E2,9.2E1,8.8E1,2.4E2,4.4E1,1.097E3,5.62E2,1E1,1.05E2,8E0,2.6E1,2.5E1,3E0,2.2E1,1E1,1.8E2,1.261E3,3.52E2,6.92E2,3.57E2,2.63E2,2.32E2,2.69E2,5.73E2,2.64E2,7E0,2E0,4.6E2,2.1E1,2.35E2,3.16E2],"tree_param":{"num_deleted":"0","num_feature":"12","num_nodes":"127","size_leaf_vector":"1"}},{"base_weights":[7.37138E-2,-1.4336165E1,8.7820694E1,-1.709573E1,2.0345995E1,2.3928639E2,1.7624598E1,-1.9173054E1,-7.061441E0,7.040153E1,6.888479E-1,1.7806836E2,9.587847E2,2.5858425E1,-6.4318256E0,-1.2016573E1,-1.9825596E1,4.738387E1,-9.408736E0,5.4745224E1,9.1280054E2,1.9371225E1,-7.5177236E0,5.0571848E2,1.2520091E2,4.3302655E2,2.214852E3,3.6512264E1,2.5084567E0,-7.3340425E0,7.003834E1,-1.6840857E1,2.7930174E0,-2.090824E1,-1.7383596E1,1.5839326E2,2.1513525E1,1.9565306E1,-1.2524453E1,1.61681E2,2.4381672E1,1.9664455E2,1.2544915E3,7.71209E1,1.2376175E1,7.764768E0,-1.0148314E1,1.6595433E2,8.0228143E2,3.6051288E2,8.644164E1,2.5716754E2,9.241502E2,1.6343328E3,3.6002874E3,1.2359212E1,6.905126E1,-1.1741615E1,2.0877583E1,-2.800888E0,-1.1951224E1,1.7278453E2,-8.887838E0,-9.545679E-1,-5.670122E-1,3.0710585E0,-3.72763E-1,-9.984441E-1,-1.0697798E0,-5.556978E-1,-9.6827185E-1,1.3969556E1,5.138289E0,1.8859195E0,2.3117387E-1,3.1109128E0,2.6821962E-1,-3.2308362E-3,-7.6148903E-1,8.291924E1,6.6339335E0,3.5817525E0,7.4313086E-1,4.131191E0,1.3075208E1,2.0008856E1,7.4739944E1,1.3758074E0,9.895972E0,2.1510007E0,4.1936287E-1,-3.5043356E-1,3.0589914E0,-3.4349358E-1,-7.1850747E-1,1.2509147E1,2.186368E0,7.673594E1,1.2439908E0,9.028457E0,6.0949078E1,6.003689E0,1.0478618E0,3.6143917E1,9.681369E0,5.6415706E0,4.720535E1,5.243465E1,1.17846245E2,5.6843777E1,2.1633426E2,4.152127E0,1.4323275E-1,7.9670024E0,1.1879952E0,-8.932031E-1,-1.5713744E-1,2.499602E0,-3.1779838E-1,2.1474965E-1,-3.6742413E-1,-3.1182232E-1,-7.894207E-1,1.5100515E0,1.3608596E1,5.447445E-3,-7.451927E-1],"categories":[],"categories_nodes":[],"categories_segments":[],"categories_sizes":[],"default_left":[0,0,0,0,0,0,0,0,0,0,0,0,0,0,0,0,0,0,0,0,0,0,0,0,0,0,0,0,0,0,0,0,0,0,0,0,0,0,0,0,0,0,0,0,0,0,0,0,0,0,0,0,0,0,0,0,0,0,0,0,0,0,0,0,0,0,0,0,0,0,0,0,0,0,0,0,0,0,0,0,0,0,0,0,0,0,0,0,0,0,0,0,0,0,0,0,0,0,0,0,0,0,0,0,0,0,0,0,0,0,0,0,0,0,0,0,0,0,0,0,0,0,0,0,0,0,0],"id":1,"left_children":[1,3,5,7,9,11,13,15,17,19,21,23,25,27,29,31,33,35,37,39,41,43,45,47,49,51,53,55,57,59,61,63,65,67,69,71,73,75,77,79,81,83,85,87,89,91,93,95,97,99,101,103,105,107,109,111,113,115,117,119,121,123,125,-1,-1,-1,-1,-1,-1,-1,-1,-1,-1,-1,-1,-1,-1,-1,-1,-1,-1,-1,-1,-1,-1,-1,-1,-1,-1,-1,-1,-1,-1,-1,-1,-1,-1,-1,-1,-1,-1,-1,-1,-1,-1,-1,-1,-1,-1,-1,-1,-1,-1,-1,-1,-1,-1,-1,-1,-1,-1,-1,-1,-1,-1,-1,-1],"loss_changes":[7.011606E7,4.558999E6,8.316165E7,9.19543E5,3.454596E6,1.0893187E8,1.0590834E6,1.70462E5,9.677581E5,1.3006994E7,3.8681428E5,3.950019E7,1.2715611E8,9.9074675E5,9.461969E4,2.1845634E5,8.8196E4,8.95482E5,6.5537E5,3.1553402E6,4.157983E6,3.1009622E5,7.055288E4,3.180824E7,1.7918024E7,1.1681192E7,3.9959456E7,2.1486272E6,3.271851E5,2.8201633E4,1.3128552E5,2.8329812E4,4.5228775E5,1.0195E4,1.2770475E5,3.6840575E5,6.961934E4,4.2669234E5,2.2088712E5,9.112668E6,3.403392E5,3.0160906E4,1.865392E6,4.9190512E5,8.373738E4,2.0402281E5,2.0607484E4,1.523016E6,9.619008E7,4.2724236E7,3.721708E6,2.90794E6,4.76364E5,1.5301816E7,2.371176E7,1.054071E6,4.760251E6,3.7006703E4,4.3323572E5,2.2039148E4,1.4549906E4,9.0977125E4,5.42872E2,0E0,0E0,0E0,0E0,0E0,0E0,0E0,0E0,0E0,0E0,0E0,0E0,0E0,0E0,0E0,0E0,0E0,0E0,0E0,0E0,0E0,0E0,0E0,0E0,0E0,0E0,0E0,0E0,0E0,0E0,0E0,0E0,0E0,0E0,0E0,0E0,0E0,0E0,0E0,0E0,0E0,0E0,0E0,0E0,0E0,0E0,0E0,0E0,0E0,0E0,0E0,0E0,0E0,0E0,0E0,0E0,0E0,0E0,0E0,0E0,0E0,0E0,0E0,0E0],"parents":[2147483647,0,0,1,1,2,2,3,3,4,4,5,5,6,6,7,7,8,8,9,9,10,10,11,11,12,12,13,13,14,14,15,15,16,16,17,17,18,18,19,19,20,20,21,21,22,22,23,23,24,24,25,25,26,26,27,27,28,28,29,29,30,30,31,31,32,32,33,33,34,34,35,35,36,36,37,37,38,38,39,39,40,40,41,41,42,42,43,43,44,44,45,45,46,46,47,47,48,48,49,49,50,50,51,51,52,52,53,53,54,54,55,55,56,56,57,57,58,58,59,59,60,60,61,61,62,62],"right_children":[2,4,6,8,10,12,14,16,18,20,22,24,26,28,30,32,34,36,38,40,42,44,46,48,50,52,54,56,58,60,62,64,66,68,70,72,74,76,78,80,82,84,86,88,90,92,94,96,98,100,102,104,106,108,110,112,114,116,118,120,122,124,126,-1,-1,-1,-1,-1,-1,-1,-1,-1,-1,-1,-1,-1,-1,-1,-1,-1,-1,-1,-1,-1,-1,-1,-1,-1,-1,-1,-1,-1,-1,-1,-1,-1,-1,-1,-1,-1,-1,-1,-1,-1,-1,-1,-1,-1,-1,-1,-1,-1,-1,-1,-1,-1,-1,-1,-1,-1,-1,-1,-1,-1,-1,-1,-1],"split_conditions":[9.355298E-1,8.463459E-1,3.3E2,6.011138E-1,2.33E2,3.25E2,1.0566361E0,4.7E1,4.2E1,2.28E2,1.8571225E2,-1.32E2,-4.5E1,8.04E2,3.8147712E3,2.2613466E-1,2.9380235E-1,-1.05E2,7.151538E1,-1.1E2,4E0,3.3E2,3.32E2,2.28E2,6.9E1,-5.9E1,6E0,7.66E2,9.48E2,1.1124673E0,-1.61E2,7.980677E-2,-1.41E2,-1.36E2,-1.33E2,9.5751144E1,-6.2E1,3.3E2,1.54E2,1.5E1,3.8E1,3.353229E2,2E0,3.18E2,5.5091927E1,3.25E2,-6.2E1,7.60077E2,2.33E2,6E1,1.014231E0,-1.51E2,2E0,1.2003613E5,6.534699E2,3.32E2,7.73E2,9.11E2,9.94E2,4.9406635E2,-9.9E1,8.04E2,5.62E2,-9.545679E-1,-5.670122E-1,3.0710585E0,-3.72763E-1,-9.984441E-1,-1.0697798E0,-5.556978E-1,-9.6827185E-1,1.3969556E1,5.138289E0,1.8859195E0,2.3117387E-1,3.1109128E0,2.6821962E-1,-3.2308362E-3,-7.6148903E-1,8.291924E1,6.6339335E0,3.5817525E0,7.4313086E-1,4.131191E0,1.3075208E1,2.0008856E1,7.4739944E1,1.3758074E0,9.895972E0,2.1510007E0,4.1936287E-1,-3.5043356E-1,3.0589914E0,-3.4349358E-1,-7.1850747E-1,1.2509147E1,2.186368E0,7.673594E1,1.2439908E0,9.028457E0,6.0949078E1,6.003689E0,1.0478618E0,3.6143917E1,9.681369E0,5.6415706E0,4.720535E1,5.243465E1,1.17846245E2,5.6843777E1,2.1633426E2,4.152127E0,1.4323275E-1,7.9670024E0,1.1879952E0,-8.932031E-1,-1.5713744E-1,2.499602E0,-3.1779838E-1,2.1474965E-1,-3.6742413E-1,-3.1182232E-1,-7.894207E-1,1.5100515E0,1.3608596E1,5.447445E-3,-7.451927E-1],"split_indices":[0,0,10,0,10,10,0,10,10,10,2,7,7,10,1,0,0,7,2,7,3,10,10,10,10,7,8,10,10,0,7,0,7,7,7,2,7,10,10,10,10,1,8,10,2,10,7,2,10,10,0,7,3,6,2,10,10,10,10,2,7,10,10,0,0,0,0,0,0,0,0,0,0,0,0,0,0,0,0,0,0,0,0,0,0,0,0,0,0,0,0,0,0,0,0,0,0,0,0,0,0,0,0,0,0,0,0,0,0,0,0,0,0,0,0,0,0,0,0,0,0,0,0,0,0,0,0],"split_type":[0,0,0,0,0,0,0,0,0,0,0,0,0,0,0,0,0,0,0,0,0,0,0,0,0,0,0,0,0,0,0,0,0,0,0,0,0,0,0,0,0,0,0,0,0,0,0,0,0,0,0,0,0,0,0,0,0,0,0,0,0,0,0,0,0,0,0,0,0,0,0,0,0,0,0,0,0,0,0,0,0,0,0,0,0,0,0,0,0,0,0,0,0,0,0,0,0,0,0,0,0,0,0,0,0,0,0,0,0,0,0,0,0,0,0,0,0,0,0,0,0,0,0,0,0,0,0],"sum_hessian":[5.5451E4,4.763E4,7.821E3,4.412E4,3.51E3,2.476E3,5.345E3,3.6552E4,7.568E3,9.89E2,2.521E3,2.283E3,1.93E2,3.982E3,1.363E3,3.056E3,3.3496E4,3.12E2,7.256E3,9.72E2,1.7E1,7.69E2,1.752E3,3.16E2,1.967E3,1.37E2,5.6E1,2.734E3,1.248E3,1.348E3,1.5E1,2.305E3,7.51E2,2.3202E4,1.0294E4,5.8E1,2.54E2,7.04E2,6.552E3,2.14E2,7.58E2,6E0,1.1E1,8.2E1,6.87E2,2.57E2,1.495E3,1.48E2,1.68E2,2.77E2,1.69E3,1.02E2,3.5E1,4.1E1,1.5E1,1.57E3,1.164E3,7.03E2,5.45E2,6.81E2,6.67E2,6E0,9E0,1.634E3,6.71E2,1.11E2,6.4E2,7.94E3,1.5262E4,2.474E3,7.82E3,1.7E1,4.1E1,1.29E2,1.25E2,1.75E2,5.29E2,1.169E3,5.383E3,3E0,2.11E2,1.26E2,6.32E2,3E0,3E0,3E0,8E0,5.9E1,2.3E1,7.8E1,6.09E2,2.02E2,5.5E1,8.43E2,6.52E2,8.7E1,6.1E1,8.6E1,8.2E1,2.3E2,4.7E1,1.116E3,5.74E2,1.1E1,9.1E1,1E0,3.4E1,2.4E1,1.7E1,4E0,1.1E1,1.85E2,1.385E3,3.88E2,7.76E2,4.1E2,2.93E2,2.63E2,2.82E2,2.66E2,4.15E2,2.69E2,3.98E2,3E0,3E0,4E0,5E0],"tree_param":{"num_deleted":"0","num_feature":"12","num_nodes":"127","size_leaf_vector":"1"}},{"base_weights":[2.2668543E-1,-7.7938414E0,4.0096506E2,-1.0839628E1,1.5409613E2,8.1791205E2,1.0401381E2,-1.712106E1,2.3026873E1,9.6213776E2,1.0800313E2,6.4359064E2,1.5216769E3,4.625667E1,2.9753943E2,1.8122953E0,-1.8291025E1,1.5264243E3,2.0858349E1,8.2283655E2,1.7798977E3,2.1670639E2,4.8164364E1,1.1739381E3,3.6130038E2,5.759887E2,1.9927728E3,-5.448089E0,6.689517E1,8.30328E2,2.161291E2,-7.2174206E0,1.0869931E2,-1.981902E1,-8.98497E0,3.72554E1,9.8903175E1,1.1628686E2,1.0718439E1,8.002204E1,6.9519794E2,7.2180524E2,1.475043E2,4.1130524E1,2.5006316E2,3.73554E1,5.8239414E1,1.3868765E3,4.7664716E2,2.5201859E2,7.2231555E2,5.5240704E1,6.5109064E2,1.1302465E3,3.0440466E3,7.653366E0,-2.0452066E1,9.644461E1,1.9471844E1,5.968533E2,7.783225E1,5.8933307E2,1.7600453E2,-8.5227746E-1,7.124115E-1,2.3879942E1,4.8515244E0,-7.273485E-1,-1.0068507E0,8.5021746E-1,-6.3935846E-1,9.663907E0,4.0058208E0,1.8658397E-1,1.7751576E0,9.2670435E-1,3.8206203E1,8.690969E0,5.1459473E1,4.9861774E-1,5.2311926E0,1.568518E1,6.1414576E0,1.2115073E0,2.1101758E0,3.207053E0,1.676052E0,5.825552E1,9.552299E1,2.6734198E1,3.3959484E0,2.728975E1,7.9607253E0,2.1810415E1,4.2485676E1,1.0127201E-1,3.4019082E0,4.0628727E1,1.1891842E1,2.7834646E1,7.088948E1,1.1731445E2,2.1603577E2,-1.5901563E-1,2.7929127E0,-7.6821744E-1,-1.3022592E0,3.553724E0,7.36279E0,2.0096984E0,2.469634E-2,5.2380123E0,3.1133774E1,3.6060662E0,3.4278164E1,2.0181795E1,6.2454515E0],"categories":[],"categories_nodes":[],"categories_segments":[],"categories_sizes":[],"default_left":[0,0,0,0,0,0,0,0,0,0,0,0,0,0,0,0,0,0,0,0,0,0,0,0,0,0,0,0,0,0,0,0,0,0,0,0,0,0,0,0,0,0,0,0,0,0,0,0,0,0,0,0,0,0,0,0,0,0,0,0,0,0,0,0,0,0,0,0,0,0,0,0,0,0,0,0,0,0,0,0,0,0,0,0,0,0,0,0,0,0,0,0,0,0,0,0,0,0,0,0,0,0,0,0,0,0,0,0,0,0,0,0,0,0,0,0,0],"id":2,"left_children":[1,3,5,7,9,11,13,15,17,19,21,23,25,27,29,31,33,35,37,39,41,43,45,47,49,51,53,55,57,59,61,63,65,67,69,-1,-1,71,73,-1,75,77,-1,79,81,83,85,87,89,91,93,95,97,99,101,103,105,107,109,111,-1,113,115,-1,-1,-1,-1,-1,-1,-1,-1,-1,-1,-1,-1,-1,-1,-1,-1,-1,-1,-1,-1,-1,-1,-1,-1,-1,-1,-1,-1,-1,-1,-1,-1,-1,-1,-1,-1,-1,-1,-1,-1,-1,-1,-1,-1,-1,-1,-1,-1,-1,-1,-1,-1,-1,-1],"loss_changes":[1.7805645E8,2.6781462E7,1.3449958E8,1.134082E7,3.7252884E7,5.4472576E7,7.0951185E6,9.96158E5,2.7161092E7,4.68684E6,6.168998E6,5.407101E7,3.850256E7,5.243149E5,6.153219E6,2.527572E6,6.02051E5,2.760606E6,8.059165E6,3.651492E6,6.537784E6,1.963402E6,6.46895E4,1.8047424E7,9.247088E6,1.176418E6,5.0057824E7,2.7873453E4,4.8998988E5,2.292868E6,1.81303E6,5.0972866E5,8.3180175E5,6.0695E4,5.906466E5,0E0,0E0,2.212363E6,1.3039718E6,0E0,1.991352E6,6.633175E5,0E0,1.0776511E5,2.252984E6,1.8003594E4,4.394775E4,8.920944E6,6.99044E5,4.956877E6,1.634068E6,3.267294E3,1.608554E6,4.818052E6,1.302328E7,3.98676E4,1.4779434E3,2.679765E5,5.346388E4,1.38079E5,0E0,5.4781325E5,1.3104018E6,0E0,0E0,0E0,0E0,0E0,0E0,0E0,0E0,0E0,0E0,0E0,0E0,0E0,0E0,0E0,0E0,0E0,0E0,0E0,0E0,0E0,0E0,0E0,0E0,0E0,0E0,0E0,0E0,0E0,0E0,0E0,0E0,0E0,0E0,0E0,0E0,0E0,0E0,0E0,0E0,0E0,0E0,0E0,0E0,0E0,0E0,0E0,0E0,0E0,0E0,0E0,0E0,0E0,0E0],"parents":[2147483647,0,0,1,1,2,2,3,3,4,4,5,5,6,6,7,7,8,8,9,9,10,10,11,11,12,12,13,13,14,14,15,15,16,16,17,17,18,18,19,19,20,20,21,21,22,22,23,23,24,24,25,25,26,26,27,27,28,28,29,29,30,30,31,31,32,32,33,33,34,34,37,37,38,38,40,40,41,41,43,43,44,44,45,45,46,46,47,47,48,48,49,49,50,50,51,51,52,52,53,53,54,54,55,55,56,56,57,57,58,58,59,59,61,61,62,62],"right_children":[2,4,6,8,10,12,14,16,18,20,22,24,26,28,30,32,34,36,38,40,42,44,46,48,50,52,54,56,58,60,62,64,66,68,70,-1,-1,72,74,-1,76,78,-1,80,82,84,86,88,90,92,94,96,98,100,102,104,106,108,110,112,-1,114,116,-1,-1,-1,-1,-1,-1,-1,-1,-1,-1,-1,-1,-1,-1,-1,-1,-1,-1,-1,-1,-1,-1,-1,-1,-1,-1,-1,-1,-1,-1,-1,-1,-1,-1,-1,-1,-1,-1,-1,-1,-1,-1,-1,-1,-1,-1,-1,-1,-1,-1,-1,-1,-1,-1],"split_conditions":[1.0689706E5,4.4416363E4,3.3E2,5.53043E3,6.9E1,-4.5E1,-6.3E1,3.3E1,1.5E1,1.5374872E5,2.12E2,-1.37E2,2.33E2,-1.27E2,-6E1,8.5333085E-1,1.66897E3,9.6139747E-1,1.11E2,5E0,-6.8E1,9.00471E-1,1.0412923E5,2.33E2,-5.9E1,9.906797E-1,1.2096873E5,-1.53E2,-8.7E1,1.4805211E5,1E0,2.4803468E2,4E0,5.7E1,1.23E2,3.72554E1,9.8903175E1,7.9E1,2.6114E4,8.002204E1,8.404675E-1,1.8E1,1.475043E2,8.463459E-1,-7.8E1,8.950408E-1,1.0333996E0,-1.46E2,-1.47E2,2.33E2,2.33E2,9.397872E-1,1.0030539E0,6E0,6E0,-1.55E2,9.308528E-1,-9.8E1,4E0,5E0,7.783225E1,1.1E1,-5.7E1,-8.5227746E-1,7.124115E-1,2.3879942E1,4.8515244E0,-7.273485E-1,-1.0068507E0,8.5021746E-1,-6.3935846E-1,9.663907E0,4.0058208E0,1.8658397E-1,1.7751576E0,9.2670435E-1,3.8206203E1,8.690969E0,5.1459473E1,4.9861774E-1,5.2311926E0,1.568518E1,6.1414576E0,1.2115073E0,2.1101758E0,3.207053E0,1.676052E0,5.825552E1,9.552299E1,2.6734198E1,3.3959484E0,2.728975E1,7.9607253E0,2.1810415E1,4.2485676E1,1.0127201E-1,3.4019082E0,4.0628727E1,1.1891842E1,2.7834646E1,7.088948E1,1.1731445E2,2.1603577E2,-1.5901563E-1,2.7929127E0,-7.6821744E-1,-1.3022592E0,3.553724E0,7.36279E0,2.0096984E0,2.469634E-2,5.2380123E0,3.1133774E1,3.6060662E0,3.4278164E1,2.0181795E1,6.2454515E0],"split_indices":[11,11,10,11,10,7,7,10,10,6,10,7,10,7,7,0,11,0,10,4,7,0,6,10,7,0,6,7,7,5,8,11,10,10,10,0,0,10,11,0,0,3,0,0,7,0,0,7,7,10,10,0,0,4,8,7,0,7,8,3,0,4,7,0,0,0,0,0,0,0,0,0,0,0,0,0,0,0,0,0,0,0,0,0,0,0,0,0,0,0,0,0,0,0,0,0,0,0,0,0,0,0,0,0,0,0,0,0,0,0,0,0,0,0,0,0,0],"split_type":[0,0,0,0,0,0,0,0,0,0,0,0,0,0,0,0,0,0,0,0,0,0,0,0,0,0,0,0,0,0,0,0,0,0,0,0,0,0,0,0,0,0,0,0,0,0,0,0,0,0,0,0,0,0,0,0,0,0,0,0,0,0,0,0,0,0,0,0,0,0,0,0,0,0,0,0,0,0,0,0,0,0,0,0,0,0,0,0,0,0,0,0,0,0,0,0,0,0,0,0,0,0,0,0,0,0,0,0,0,0,0,0,0,0,0,0,0],"sum_hessian":[5.5396E4,5.431E4,1.086E3,5.3308E4,1.002E3,4.51E2,6.35E2,4.4968E4,8.34E3,5.3E1,9.49E2,3.63E2,8.8E1,4.9E2,1.45E2,2.617E3,4.2351E4,1.1E1,8.329E3,4.7E1,6E0,3.36E2,6.13E2,1.25E2,2.38E2,3E1,5.8E1,1.4E2,3.5E2,1.8E1,1.27E2,2.414E3,2.03E2,3.6377E4,5.974E3,5E0,6E0,7.99E2,7.53E3,5E0,4.2E1,4E0,2E0,5.4E1,2.82E2,2.98E2,3.15E2,9.5E1,3E1,1.84E2,5.4E1,4E0,2.6E1,3.3E1,2.5E1,7.5E1,6.5E1,2.15E2,1.35E2,1.5E1,3E0,1.1E1,1.16E2,1.656E3,7.58E2,5E0,1.98E2,2.072E3,3.4305E4,7.62E2,5.212E3,2.54E2,5.45E2,5.875E3,1.655E3,4E0,3.8E1,2E0,2E0,3.7E1,1.7E1,1.87E2,9.5E1,8.2E1,2.16E2,2.53E2,6.2E1,6.9E1,2.6E1,2.6E1,4E0,4.3E1,1.41E2,1.8E1,3.6E1,1E0,3E0,1.8E1,8E0,1.2E1,2.1E1,1.8E1,7E0,6.2E1,1.3E1,3.6E1,2.9E1,1.45E2,7E1,6.4E1,7.1E1,1E0,1.4E1,2E0,9E0,2E1,9.6E1],"tree_param":{"num_deleted":"0","num_feature":"12","num_nodes":"117","size_leaf_vector":"1"}},{"base_weights":[3.2885545E-1,-7.4801216E0,4.076169E2,-1.0288488E1,1.42654E2,8.051872E2,1.0992182E2,-1.6243624E1,2.1612053E1,9.4505646E2,9.6651474E1,4.062707E2,1.1134838E3,5.4729904E1,1.9352672E2,2.1290424E0,-1.7368654E1,1.597979E3,1.9352686E1,8.032488E2,1.9456427E3,2.0193192E2,4.5674942E1,1.7197577E2,5.768415E2,1.3272974E3,3.7911615E2,2.194398E1,7.4449646E1,2.9648795E2,3.9214E1,-6.5227547E0,1.0410747E2,-1.8829506E1,-8.532375E0,3.4650764E1,9.81917E1,1.0858808E2,9.870785E0,1.2014172E3,5.1102823E2,5.3782715E2,1.5870912E2,2.9816845E1,2.2750948E2,1.556544E1,5.059153E1,1.0687039E2,2.9836972E2,3.108257E2,7.240057E2,1.0534119E3,1.9513495E3,6.331668E2,1.9407811E2,5.5134025E0,5.1339436E1,6.0729008E1,1.5243852E2,6.045004E2,2.1209091E2,1.4288352E1,8.636635E1,-8.07442E-1,7.5430405E-1,2.2013311E1,4.581714E0,-6.8872184E-1,-9.567008E-1,8.3024246E-1,-6.0865325E-1,9.247718E0,3.7325292E0,1.8345632E-1,1.5845445E0,6.291006E1,3.0630715E0,1.8754838E0,2.9121729E1,5.0153072E1,2.419762E0,5.296589E-1,3.7695637E0,7.898347E0,1.5231456E1,1.086907E0,8.095216E-2,2.3910615E0,4.926065E0,7.5885997E0,4.02128E0,3.0975653E1,1.0951639E1,2.3210941E1,1.0420702E1,1.7499535E1,4.0412544E1,6.431869E1,3.2393536E1,6.4784386E1,1.3824979E2,3.5895565E1,1.623999E1,2.3201008E0,1.0581813E1,1.2485791E0,-3.4846595E-1,3.0275915E0,7.005052E-1,4.9904284E0,5.473103E-1,1.55496645E1,2.9512544E0,5.615203E0,4.0504696E1,7.666271E0,1.6202028E1,-1.0230224E0,2.2775419E0,1.1582527E0,6.5858254E0],"categories":[],"categories_nodes":[],"categories_segments":[],"categories_sizes":[],"default_left":[0,0,0,0,0,0,0,0,0,0,0,0,0,0,0,0,0,0,0,0,0,0,0,0,0,0,0,0,0,0,0,0,0,0,0,0,0,0,0,0,0,0,0,0,0,0,0,0,0,0,0,0,0,0,0,0,0,0,0,0,0,0,0,0,0,0,0,0,0,0,0,0,0,0,0,0,0,0,0,0,0,0,0,0,0,0,0,0,0,0,0,0,0,0,0,0,0,0,0,0,0,0,0,0,0,0,0,0,0,0,0,0,0,0,0,0,0,0,0,0,0],"id":3,"left_children":[1,3,5,7,9,11,13,15,17,19,21,23,25,27,29,31,33,35,37,39,41,43,45,47,49,51,53,55,57,59,61,63,65,67,69,-1,-1,71,73,75,77,79,-1,81,83,85,87,89,91,93,95,97,99,101,103,105,107,109,111,113,115,117,119,-1,-1,-1,-1,-1,-1,-1,-1,-1,-1,-1,-1,-1,-1,-1,-1,-1,-1,-1,-1,-1,-1,-1,-1,-1,-1,-1,-1,-1,-1,-1,-1,-1,-1,-1,-1,-1,-1,-1,-1,-1,-1,-1,-1,-1,-1,-1,-1,-1,-1,-1,-1,-1,-1,-1,-1,-1,-1],"loss_changes":[1.7616475E8,2.2915888E7,1.232371E8,1.0135358E7,3.6747372E7,5.439875E7,2.744154E6,9.29311E5,2.9861514E7,6.099264E6,5.062433E6,7.733718E6,3.890829E7,2.317635E5,3.753883E6,2.2902388E6,5.46694E5,2.612058E6,7.091116E6,5.08734E6,8.670184E6,1.34912E6,9.3659375E4,6.59343E5,4.198684E6,3.1102656E7,2.603641E6,6.5885805E4,2.3150538E5,3.563129E6,1.1159503E5,4.9800794E5,8.1082975E5,5.5695E4,5.504011E5,0E0,0E0,2.072496E6,1.0253452E6,1.21777E6,9.925195E5,8.622586E5,0E0,3.512178E4,1.389188E6,7.798715E3,6.805175E4,5.547625E4,5.7770525E5,5.6303825E5,1.985768E6,1.2109776E7,2.7359088E7,3.93999E5,8.0931875E4,2.1791338E4,1.6002375E4,3.7438706E5,4.7041138E5,2.944794E6,6.93718E5,7.045734E4,9.153303E4,0E0,0E0,0E0,0E0,0E0,0E0,0E0,0E0,0E0,0E0,0E0,0E0,0E0,0E0,0E0,0E0,0E0,0E0,0E0,0E0,0E0,0E0,0E0,0E0,0E0,0E0,0E0,0E0,0E0,0E0,0E0,0E0,0E0,0E0,0E0,0E0,0E0,0E0,0E0,0E0,0E0,0E0,0E0,0E0,0E0,0E0,0E0,0E0,0E0,0E0,0E0,0E0,0E0,0E0,0E0,0E0,0E0,0E0],"parents":[2147483647,0,0,1,1,2,2,3,3,4,4,5,5,6,6,7,7,8,8,9,9,10,10,11,11,12,12,13,13,14,14,15,15,16,16,17,17,18,18,19,19,20,20,21,21,22,22,23,23,24,24,25,25,26,26,27,27,28,28,29,29,30,30,31,31,32,32,33,33,34,34,37,37,38,38,39,39,40,40,41,41,43,43,44,44,45,45,46,46,47,47,48,48,49,49,50,50,51,51,52,52,53,53,54,54,55,55,56,56,57,57,58,58,59,59,60,60,61,61,62,62],"right_children":[2,4,6,8,10,12,14,16,18,20,22,24,26,28,30,32,34,36,38,40,42,44,46,48,50,52,54,56,58,60,62,64,66,68,70,-1,-1,72,74,76,78,80,-1,82,84,86,88,90,92,94,96,98,100,102,104,106,108,110,112,114,116,118,120,-1,-1,-1,-1,-1,-1,-1,-1,-1,-1,-1,-1,-1,-1,-1,-1,-1,-1,-1,-1,-1,-1,-1,-1,-1,-1,-1,-1,-1,-1,-1,-1,-1,-1,-1,-1,-1,-1,-1,-1,-1,-1,-1,-1,-1,-1,-1,-1,-1,-1,-1,-1,-1,-1,-1,-1,-1,-1],"split_conditions":[1.0689706E5,4.4416363E4,3.3E2,5.53043E3,6.9E1,3E0,3.8017548E2,3.3E1,1.5E1,1.4805211E5,2.12E2,4.1996487E2,1.2E1,9.397872E-1,3E0,8.5333085E-1,1.66897E3,9.165042E-1,1.11E2,1.6E1,1.767272E2,8.8965964E-1,8.214539E-1,9.906797E-1,1.09661086E5,7.274601E2,2.33E2,1.2E1,6E0,2E0,1.2E1,2.609702E2,4E0,5.7E1,1.23E2,3.4650764E1,9.81917E1,7.9E1,2.6114E4,9.9396855E-1,8.404675E-1,9.534016E-1,1.5870912E2,8.463459E-1,1E1,4.5278625E1,2.7217834E3,9.278085E4,2.33E2,1.2E1,9.732158E-1,2.33E2,5E0,2.4E1,7.509645E-1,2E0,2.5E1,4E0,9.9396855E-1,2E0,1.2477981E5,5E0,9.9396855E-1,-8.07442E-1,7.5430405E-1,2.2013311E1,4.581714E0,-6.8872184E-1,-9.567008E-1,8.3024246E-1,-6.0865325E-1,9.247718E0,3.7325292E0,1.8345632E-1,1.5845445E0,6.291006E1,3.0630715E0,1.8754838E0,2.9121729E1,5.0153072E1,2.419762E0,5.296589E-1,3.7695637E0,7.898347E0,1.5231456E1,1.086907E0,8.095216E-2,2.3910615E0,4.926065E0,7.5885997E0,4.02128E0,3.0975653E1,1.0951639E1,2.3210941E1,1.0420702E1,1.7499535E1,4.0412544E1,6.431869E1,3.2393536E1,6.4784386E1,1.3824979E2,3.5895565E1,1.623999E1,2.3201008E0,1.0581813E1,1.2485791E0,-3.4846595E-1,3.0275915E0,7.005052E-1,4.9904284E0,5.473103E-1,1.55496645E1,2.9512544E0,5.615203E0,4.0504696E1,7.666271E0,1.6202028E1,-1.0230224E0,2.2775419E0,1.1582527E0,6.5858254E0],"split_indices":[11,11,10,11,10,9,2,10,10,5,10,2,9,0,9,0,11,0,10,4,2,0,0,0,5,2,10,9,8,8,9,11,10,10,10,0,0,10,11,0,0,0,0,0,9,2,1,5,10,4,0,10,8,4,0,9,4,8,0,9,5,8,0,0,0,0,0,0,0,0,0,0,0,0,0,0,0,0,0,0,0,0,0,0,0,0,0,0,0,0,0,0,0,0,0,0,0,0,0,0,0,0,0,0,0,0,0,0,0,0,0,0,0,0,0,0,0,0,0,0,0],"split_type":[0,0,0,0,0,0,0,0,0,0,0,0,0,0,0,0,0,0,0,0,0,0,0,0,0,0,0,0,0,0,0,0,0,0,0,0,0,0,0,0,0,0,0,0,0,0,0,0,0,0,0,0,0,0,0,0,0,0,0,0,0,0,0,0,0,0,0,0,0,0,0,0,0,0,0,0,0,0,0,0,0,0,0,0,0,0,0,0,0,0,0,0,0,0,0,0,0,0,0,0,0,0,0,0,0,0,0,0,0,0,0,0,0,0,0,0,0,0,0,0,0],"sum_hessian":[5.5387E4,5.4346E4,1.041E3,5.3349E4,9.97E2,4.45E2,5.96E2,4.4957E4,8.392E3,5.3E1,9.44E2,1.95E2,2.5E2,3.6E2,2.36E2,2.594E3,4.2363E4,1.1E1,8.381E3,4.8E1,5E0,3.07E2,6.37E2,8.3E1,1.12E2,1.93E2,5.7E1,1.36E2,2.24E2,1.41E2,9.5E1,2.392E3,2.02E2,3.6352E4,6.011E3,4E0,7E0,8.04E2,7.577E3,1.9E1,2.9E1,3E0,2E0,4E1,2.67E2,9E1,5.47E2,5.6E1,2.7E1,4.1E1,7.1E1,1.36E2,5.7E1,2.3E1,3.4E1,8.8E1,4.8E1,1.92E2,3.2E1,2.9E1,1.12E2,6.3E1,3.2E1,1.655E3,7.37E2,6E0,1.96E2,2.068E3,3.4284E4,7.6E2,5.251E3,2.46E2,5.58E2,5.901E3,1.676E3,1.8E1,1E0,4E0,2.5E1,1E0,2E0,2.9E1,1.1E1,1.42E2,1.25E2,6.2E1,2.8E1,5.19E2,2.8E1,1.9E1,3.7E1,4E0,2.3E1,1.5E1,2.6E1,1.4E1,5.7E1,8.5E1,5.1E1,3.3E1,2.4E1,1.7E1,6E0,4E0,3E1,3.4E1,5.4E1,3.8E1,1E1,1.07E2,8.5E1,1.1E1,2.1E1,9E0,2E1,7.5E1,3.7E1,3E1,3.3E1,1.4E1,1.8E1],"tree_param":{"num_deleted":"0","num_feature":"12","num_nodes":"121","size_leaf_vector":"1"}},{"base_weights":[2.0736012E-1,-7.257734E0,3.8077316E2,-1.2313031E1,6.788891E1,7.547292E2,9.876237E1,-1.5511051E1,1.1732646E1,1.0298646E3,4.8429104E1,5.854558E2,1.4422451E3,4.3278217E1,3.0130917E2,1.4134873E0,-1.655079E1,1.6342776E2,7.7810545E0,1.1679583E3,3.557796E2,1.783518E2,2.7378992E1,1.1025714E3,3.3283002E2,5.742259E2,1.8454963E3,-9.195995E0,6.300119E1,7.714661E2,1.9933745E2,-7.775044E0,8.403445E1,-1.792597E1,-8.40338E0,7.42503E1,2.0142696E2,4.2486168E1,-9.731795E-1,9.105477E1,1.2953656E3,1.6579222E2,5.497995E2,5.5753742E1,2.0573479E2,6.68931E1,1.9307198E1,1.3225449E3,4.2127563E2,2.2283217E2,6.557946E2,7.168858E2,1.616989E2,1.5585392E3,3.836518E3,1.6658124E0,-1.9758432E1,9.130937E1,1.745112E1,6.211517E2,7.832559E1,4.631388E2,1.2730562E2,-6.156837E-1,1.019972E0,2.6349816E0,6.295201E0,-9.3039334E-1,-8.122511E-1,7.216082E-1,-5.8292806E-1,2.4691303E0,1.1797454E1,1.7985012E1,8.021833E0,1.1246189E0,2.7032616E0,-2.976313E-1,2.5246605E-1,1.2056312E1,1.2927581E0,5.1356117E1,9.89909E1,3.2032754E0,1.0700758E1,3.3349834E1,-9.04657E-1,5.800418E0,1.3352847E0,1.3417351E1,6.7555833E0,2.7522728E0,4.8864017E0,5.131309E-1,2.2539344E0,5.488761E1,8.945617E1,2.5912306E1,3.8852432E0,2.5127363E1,7.1918955E0,2.2321255E1,4.429342E1,4.2834087E1,3.5121694E0,3.3836308E0,2.284773E1,3.072706E1,9.3294556E1,1.6338501E1,2.1835071E2,-2.6881966E-1,2.3431914E0,-7.2773355E-1,-1.324336E0,2.532853E0,6.3440766E0,2.1711614E0,-7.5457595E-2,3.0976942E0,3.3837692E1,1.1753686E1,2.7411259E1,-4.0519848E-1,8.262992E0],"categories":[],"categories_nodes":[],"categories_segments":[],"categories_sizes":[],"default_left":[0,0,0,0,0,0,0,0,0,0,0,0,0,0,0,0,0,0,0,0,0,0,0,0,0,0,0,0,0,0,0,0,0,0,0,0,0,0,0,0,0,0,0,0,0,0,0,0,0,0,0,0,0,0,0,0,0,0,0,0,0,0,0,0,0,0,0,0,0,0,0,0,0,0,0,0,0,0,0,0,0,0,0,0,0,0,0,0,0,0,0,0,0,0,0,0,0,0,0,0,0,0,0,0,0,0,0,0,0,0,0,0,0,0,0,0,0,0,0,0,0,0,0,0,0],"id":4,"left_children":[1,3,5,7,9,11,13,15,17,19,21,23,25,27,29,31,33,35,37,39,41,43,45,47,49,51,53,55,57,59,61,63,65,67,69,71,73,75,77,79,81,83,85,87,89,91,93,95,97,99,101,103,105,107,109,111,113,115,117,119,-1,121,123,-1,-1,-1,-1,-1,-1,-1,-1,-1,-1,-1,-1,-1,-1,-1,-1,-1,-1,-1,-1,-1,-1,-1,-1,-1,-1,-1,-1,-1,-1,-1,-1,-1,-1,-1,-1,-1,-1,-1,-1,-1,-1,-1,-1,-1,-1,-1,-1,-1,-1,-1,-1,-1,-1,-1,-1,-1,-1,-1,-1,-1,-1],"loss_changes":[1.5771294E8,2.0684254E7,1.1255635E8,3.923162E6,6.419668E7,5.2573184E7,6.8422245E6,7.92369E5,3.5887578E6,5.914368E6,9.198013E6,4.796861E7,3.044296E7,4.9735412E5,6.126714E6,1.9797972E6,4.7514E5,5.0012225E5,1.7737232E6,7.56556E6,3.8804488E5,1.56301E6,9.2270575E5,1.7576752E7,8.735218E6,1.649612E6,2.887224E7,1.51769E4,4.4842088E5,1.775617E6,2.0122675E6,3.003703E5,3.3579038E5,4.13E4,4.5568594E5,1.7733875E5,6.299835E5,2.7103875E5,1.3986745E5,6.2257848E4,7.146472E6,2.55335E4,4.1140038E5,1.4917619E5,1.657319E6,1.7399325E5,5.605904E5,7.5804E6,9.925325E5,4.081742E6,2.639264E6,1.928579E6,2.1893289E5,1.4811016E7,1.160636E7,2.1259344E4,1.9603242E3,3.0448225E5,6.6544695E4,6.11018E5,0E0,3.174465E5,4.4846388E5,0E0,0E0,0E0,0E0,0E0,0E0,0E0,0E0,0E0,0E0,0E0,0E0,0E0,0E0,0E0,0E0,0E0,0E0,0E0,0E0,0E0,0E0,0E0,0E0,0E0,0E0,0E0,0E0,0E0,0E0,0E0,0E0,0E0,0E0,0E0,0E0,0E0,0E0,0E0,0E0,0E0,0E0,0E0,0E0,0E0,0E0,0E0,0E0,0E0,0E0,0E0,0E0,0E0,0E0,0E0,0E0,0E0,0E0,0E0,0E0,0E0,0E0],"parents":[2147483647,0,0,1,1,2,2,3,3,4,4,5,5,6,6,7,7,8,8,9,9,10,10,11,11,12,12,13,13,14,14,15,15,16,16,17,17,18,18,19,19,20,20,21,21,22,22,23,23,24,24,25,25,26,26,27,27,28,28,29,29,30,30,31,31,32,32,33,33,34,34,35,35,36,36,37,37,38,38,39,39,40,40,41,41,42,42,43,43,44,44,45,45,46,46,47,47,48,48,49,49,50,50,51,51,52,52,53,53,54,54,55,55,56,56,57,57,58,58,59,59,61,61,62,62],"right_children":[2,4,6,8,10,12,14,16,18,20,22,24,26,28,30,32,34,36,38,40,42,44,46,48,50,52,54,56,58,60,62,64,66,68,70,72,74,76,78,80,82,84,86,88,90,92,94,96,98,100,102,104,106,108,110,112,114,116,118,120,-1,122,124,-1,-1,-1,-1,-1,-1,-1,-1,-1,-1,-1,-1,-1,-1,-1,-1,-1,-1,-1,-1,-1,-1,-1,-1,-1,-1,-1,-1,-1,-1,-1,-1,-1,-1,-1,-1,-1,-1,-1,-1,-1,-1,-1,-1,-1,-1,-1,-1,-1,-1,-1,-1,-1,-1,-1,-1,-1,-1,-1,-1,-1,-1],"split_conditions":[1.0689706E5,1.740302E4,3.3E2,5.53043E3,6.9E1,-4.5E1,-6.3E1,3.3E1,4.5E1,9.9676245E-1,2.12E2,-1.37E2,2.33E2,-1.27E2,2E0,8.155864E-1,1.66897E3,7.370282E-1,1.66E2,8.404675E-1,1.0064604E0,8.8965964E-1,3.32E2,2.33E2,-5.9E1,1.0030539E0,1.0101565E0,-1.53E2,-8.7E1,1.4805211E5,-5.7E1,7.4962E2,9.308528E-1,7.4962E2,1.23E2,8.5439E3,-1.34E2,8.214539E-1,9.060325E-1,1.26465614E2,4E0,1.09661086E5,1.8770042E3,7.9E1,-9.4E1,-4.9E1,4.4416363E4,-1.46E2,-1.51E2,2.33E2,7.032346E2,-3.7E1,2E1,8.273546E2,5.590141E2,-1.55E2,9.355298E-1,9.658021E-1,-7.5E1,9.534016E-1,7.832559E1,9.562484E4,9.573822E-1,-6.156837E-1,1.019972E0,2.6349816E0,6.295201E0,-9.3039334E-1,-8.122511E-1,7.216082E-1,-5.8292806E-1,2.4691303E0,1.1797454E1,1.7985012E1,8.021833E0,1.1246189E0,2.7032616E0,-2.976313E-1,2.5246605E-1,1.2056312E1,1.2927581E0,5.1356117E1,9.89909E1,3.2032754E0,1.0700758E1,3.3349834E1,-9.04657E-1,5.800418E0,1.3352847E0,1.3417351E1,6.7555833E0,2.7522728E0,4.8864017E0,5.131309E-1,2.2539344E0,5.488761E1,8.945617E1,2.5912306E1,3.8852432E0,2.5127363E1,7.1918955E0,2.2321255E1,4.429342E1,4.2834087E1,3.5121694E0,3.3836308E0,2.284773E1,3.072706E1,9.3294556E1,1.6338501E1,2.1835071E2,-2.6881966E-1,2.3431914E0,-7.2773355E-1,-1.324336E0,2.532853E0,6.3440766E0,2.1711614E0,-7.5457595E-2,3.0976942E0,3.3837692E1,1.1753686E1,2.7411259E1,-4.0519848E-1,8.262992E0],"split_indices":[11,11,10,11,10,7,7,10,10,0,10,7,10,7,8,0,11,0,10,0,0,0,10,10,7,0,0,7,7,5,7,11,0,11,10,11,7,0,0,1,8,5,1,10,7,7,11,7,7,10,2,7,4,1,2,7,0,0,7,0,0,5,0,0,0,0,0,0,0,0,0,0,0,0,0,0,0,0,0,0,0,0,0,0,0,0,0,0,0,0,0,0,0,0,0,0,0,0,0,0,0,0,0,0,0,0,0,0,0,0,0,0,0,0,0,0,0,0,0,0,0,0,0,0,0],"split_type":[0,0,0,0,0,0,0,0,0,0,0,0,0,0,0,0,0,0,0,0,0,0,0,0,0,0,0,0,0,0,0,0,0,0,0,0,0,0,0,0,0,0,0,0,0,0,0,0,0,0,0,0,0,0,0,0,0,0,0,0,0,0,0,0,0,0,0,0,0,0,0,0,0,0,0,0,0,0,0,0,0,0,0,0,0,0,0,0,0,0,0,0,0,0,0,0,0,0,0,0,0,0,0,0,0,0,0,0,0,0,0,0,0,0,0,0,0,0,0,0,0,0,0,0,0],"sum_hessian":[5.5512E4,5.4445E4,1.067E3,5.1014E4,3.431E3,4.58E2,6.09E2,4.5026E4,5.988E3,6.7E1,3.364E3,3.69E2,8.9E1,4.79E2,1.3E2,2.606E3,4.242E4,1.51E2,5.837E3,5.5E1,1.2E1,4.68E2,2.896E3,1.2E2,2.49E2,2.9E1,6E1,1.31E2,3.48E2,2.2E1,1.08E2,2.346E3,2.6E2,3.6293E4,6.127E3,4.6E1,1.05E2,1.175E3,4.662E3,6E0,4.9E1,7E0,5E0,8.6E1,3.82E2,4.9E2,2.406E3,9E1,3E1,1.87E2,6.2E1,2.1E1,8E0,5.4E1,6E0,6.5E1,6.6E1,2.14E2,1.34E2,2E1,2E0,2.2E1,8.6E1,2.021E3,3.25E2,1.5E2,1.1E2,2.5812E4,1.0481E4,7.64E2,5.363E3,4.1E1,5E0,2E1,8.5E1,4.32E2,7.43E2,2.552E3,2.11E3,1E0,5E0,3.7E1,1.2E1,3E0,4E0,4E0,1E0,2.7E1,5.9E1,2.01E2,1.81E2,3.56E2,1.34E2,1.782E3,6.24E2,6.3E1,2.7E1,2.3E1,7E0,4E1,1.47E2,3.4E1,2.8E1,1.7E1,4E0,7E0,1E0,1.4E1,4E1,1E0,5E0,5.7E1,8E0,3.9E1,2.7E1,1.01E2,1.13E2,5.6E1,7.8E1,2E0,1.8E1,7E0,1.5E1,1.9E1,6.7E1],"tree_param":{"num_deleted":"0","num_feature":"12","num_nodes":"125","size_leaf_vector":"1"}},{"base_weights":[2.1747765E-1,-1.1760094E1,7.227695E1,-1.4037336E1,1.7193708E1,1.9446329E2,1.4439692E1,-1.5755861E1,-5.6948724E0,2.7908856E2,1.413185E1,1.4907143E2,7.2148676E2,2.4203629E1,-1.1536807E0,-9.400601E0,-1.6251575E1,4.6497833E1,-8.048695E0,1.0516206E2,1.7838614E2,5.1811047E1,2.4281658E-1,6.5327844E2,1.2483342E2,3.4533926E2,1.8210315E3,4.0524426E1,8.133257E0,6.510303E0,-8.720756E0,-1.3836932E1,4.0509925E0,-1.7134148E1,-1.42916765E1,1.6937E2,2.028887E1,2.4593246E1,-9.966215E0,3.1781473E1,1.2262616E2,3.8608868E1,6.779247E2,1.7193214E1,-6.996956E0,2.2058302E2,9.405491E2,2.9796204E2,9.933798E1,2.1048495E2,8.2116724E2,1.441014E3,4.4309937E3,1.298474E1,1.4784085E2,1.3452455E2,7.2102365E0,5.6672215E0,9.1684975E1,-3.7781024E0,-1.3151425E1,-7.9471093E-1,-4.516479E-1,2.8365862E0,-2.6430577E-1,-8.1426316E-1,-8.786977E-1,-3.68216E-1,-7.911503E-1,1.564357E1,6.609047E0,3.2222679E0,6.032897E-1,3.706546E0,3.0086106E-1,-1.569937E-1,-7.046253E-1,2.0253736E1,3.733075E0,1.0511735E1,1.3735675E0,3.9895763E1,1.4240506E0,3.657812E0,4.1356617E-1,-7.4873336E-2,-5.751638E-1,7.9367027E0,1.9584978E1,6.442855E1,2.4233558E0,8.011922E0,4.573184E1,1.3666095E1,3.3615358E0,2.7578632E1,8.353862E0,2.9682348E1,5.849286E1,3.5132336E1,1.0442869E2,5.8484528E1,2.424658E2,3.3881223E0,2.6833573E-1,3.284401E0,1.5504651E1,1.0498368E1,1.2043592E0,9.244669E-1,-1.6286774E-3,5.621271E-1,-3.320425E-1,6.321539E-3,1.144956E1,-2.298718E-1,3.855417E0,-4.3681404E-1,-8.269052E-1],"categories":[],"categories_nodes":[],"categories_segments":[],"categories_sizes":[],"default_left":[0,0,0,0,0,0,0,0,0,0,0,0,0,0,0,0,0,0,0,0,0,0,0,0,0,0,0,0,0,0,0,0,0,0,0,0,0,0,0,0,0,0,0,0,0,0,0,0,0,0,0,0,0,0,0,0,0,0,0,0,0,0,0,0,0,0,0,0,0,0,0,0,0,0,0,0,0,0,0,0,0,0,0,0,0,0,0,0,0,0,0,0,0,0,0,0,0,0,0,0,0,0,0,0,0,0,0,0,0,0,0,0,0,0,0,0,0,0,0],"id":5,"left_children":[1,3,5,7,9,11,13,15,17,19,21,23,25,27,29,31,33,35,37,-1,39,41,43,45,47,49,51,53,55,57,59,61,63,65,67,69,71,73,75,-1,77,79,81,83,85,87,89,91,93,95,97,99,101,103,105,107,109,111,113,115,117,-1,-1,-1,-1,-1,-1,-1,-1,-1,-1,-1,-1,-1,-1,-1,-1,-1,-1,-1,-1,-1,-1,-1,-1,-1,-1,-1,-1,-1,-1,-1,-1,-1,-1,-1,-1,-1,-1,-1,-1,-1,-1,-1,-1,-1,-1,-1,-1,-1,-1,-1,-1,-1,-1,-1,-1,-1,-1],"loss_changes":[4.7839756E7,3.1339915E6,5.582587E7,6.31629E5,2.775389E6,6.0607936E7,8.165591E5,1.1495E5,9.252066E5,6.972673E6,1.793431E6,2.849108E7,8.250292E7,8.64674E5,1.1987226E5,1.5795798E5,5.8378E4,1.0431781E6,4.5115503E5,0E0,9.163945E5,7.603403E6,3.0752644E5,1.3092708E7,9.822424E6,9.516442E6,4.4198256E7,4.833215E6,1.930384E5,7.322845E4,2.272554E4,1.9523906E4,3.2346878E5,8.4365E3,1.1157575E5,2.6283525E5,9.68969E4,3.6763912E5,1.9163531E5,0E0,4.574683E5,1.7241198E6,1.45789E6,3.7386694E5,4.3500766E4,4.0349275E5,1.9807244E7,2.4143614E7,1.0857858E7,1.669739E6,1.923542E6,2.0526776E7,2.513464E6,5.433756E5,4.431676E6,9.492294E4,1.3495644E5,6.993128E4,1.2568662E5,3.3027074E4,8.049586E3,0E0,0E0,0E0,0E0,0E0,0E0,0E0,0E0,0E0,0E0,0E0,0E0,0E0,0E0,0E0,0E0,0E0,0E0,0E0,0E0,0E0,0E0,0E0,0E0,0E0,0E0,0E0,0E0,0E0,0E0,0E0,0E0,0E0,0E0,0E0,0E0,0E0,0E0,0E0,0E0,0E0,0E0,0E0,0E0,0E0,0E0,0E0,0E0,0E0,0E0,0E0,0E0,0E0,0E0,0E0,0E0,0E0,0E0],"parents":[2147483647,0,0,1,1,2,2,3,3,4,4,5,5,6,6,7,7,8,8,9,9,10,10,11,11,12,12,13,13,14,14,15,15,16,16,17,17,18,18,20,20,21,21,22,22,23,23,24,24,25,25,26,26,27,27,28,28,29,29,30,30,31,31,32,32,33,33,34,34,35,35,36,36,37,37,38,38,40,40,41,41,42,42,43,43,44,44,45,45,46,46,47,47,48,48,49,49,50,50,51,51,52,52,53,53,54,54,55,55,56,56,57,57,58,58,59,59,60,60],"right_children":[2,4,6,8,10,12,14,16,18,20,22,24,26,28,30,32,34,36,38,-1,40,42,44,46,48,50,52,54,56,58,60,62,64,66,68,70,72,74,76,-1,78,80,82,84,86,88,90,92,94,96,98,100,102,104,106,108,110,112,114,116,118,-1,-1,-1,-1,-1,-1,-1,-1,-1,-1,-1,-1,-1,-1,-1,-1,-1,-1,-1,-1,-1,-1,-1,-1,-1,-1,-1,-1,-1,-1,-1,-1,-1,-1,-1,-1,-1,-1,-1,-1,-1,-1,-1,-1,-1,-1,-1,-1,-1,-1,-1,-1,-1,-1,-1,-1,-1,-1],"split_conditions":[9.355298E-1,8.463459E-1,3.3E2,6.011138E-1,1.5E1,3.25E2,1.028068E0,4.4E1,4.2E1,2.1862341E2,2.33E2,8.8351364E1,-4.5E1,7.73E2,1.0787326E0,2.3455872E-1,2.891234E-1,-1.15E2,5.2087994E1,1.0516206E2,-1.12E2,2.28E2,1.8571225E2,2.28E2,6.9E1,-5.7E1,1.0101565E0,7.66E2,1.26465614E2,3.8147712E3,-8.7E1,7.980677E-2,-1.41E2,1.66E2,1.61E2,2.992422E2,-7.9E1,3.3E2,3.46E2,3.1781473E1,4E0,6.916735E1,-1.32E2,3.32E2,5.62E2,5E0,2.33E2,6E1,-1.25E2,-1.51E2,8.1397186E2,1.3E1,1.0125045E5,3.32E2,-6.3E1,7.607154E1,8.04E2,8.04E2,5E0,3.7203882E3,5.62E2,-7.9471093E-1,-4.516479E-1,2.8365862E0,-2.6430577E-1,-8.1426316E-1,-8.786977E-1,-3.68216E-1,-7.911503E-1,1.564357E1,6.609047E0,3.2222679E0,6.032897E-1,3.706546E0,3.0086106E-1,-1.569937E-1,-7.046253E-1,2.0253736E1,3.733075E0,1.0511735E1,1.3735675E0,3.9895763E1,1.4240506E0,3.657812E0,4.1356617E-1,-7.4873336E-2,-5.751638E-1,7.9367027E0,1.9584978E1,6.442855E1,2.4233558E0,8.011922E0,4.573184E1,1.3666095E1,3.3615358E0,2.7578632E1,8.353862E0,2.9682348E1,5.849286E1,3.5132336E1,1.0442869E2,5.8484528E1,2.424658E2,3.3881223E0,2.6833573E-1,3.284401E0,1.5504651E1,1.0498368E1,1.2043592E0,9.244669E-1,-1.6286774E-3,5.621271E-1,-3.320425E-1,6.321539E-3,1.144956E1,-2.298718E-1,3.855417E0,-4.3681404E-1,-8.269052E-1],"split_indices":[0,0,10,0,10,10,0,10,10,1,10,2,7,10,0,0,0,7,2,0,7,10,2,10,10,7,0,10,1,1,7,0,7,10,10,1,7,10,10,0,10,2,7,10,10,8,10,10,7,7,2,4,5,10,7,2,10,10,8,1,10,0,0,0,0,0,0,0,0,0,0,0,0,0,0,0,0,0,0,0,0,0,0,0,0,0,0,0,0,0,0,0,0,0,0,0,0,0,0,0,0,0,0,0,0,0,0,0,0,0,0,0,0,0,0,0,0,0,0],"split_type":[0,0,0,0,0,0,0,0,0,0,0,0,0,0,0,0,0,0,0,0,0,0,0,0,0,0,0,0,0,0,0,0,0,0,0,0,0,0,0,0,0,0,0,0,0,0,0,0,0,0,0,0,0,0,0,0,0,0,0,0,0,0,0,0,0,0,0,0,0,0,0,0,0,0,0,0,0,0,0,0,0,0,0,0,0,0,0,0,0,0,0,0,0,0,0,0,0,0,0,0,0,0,0,0,0,0,0,0,0,0,0,0,0,0,0,0,0,0,0],"sum_hessian":[5.5426E4,4.7527E4,7.899E3,4.4062E4,3.465E3,2.537E3,5.362E3,3.6535E4,7.527E3,3.9E1,3.426E3,2.337E3,2E2,3.297E3,2.065E3,2.645E3,3.389E4,3.24E2,7.203E3,1E0,3.8E1,9.22E2,2.504E3,1.06E2,2.231E3,1.5E2,5E1,1.635E3,1.662E3,1.026E3,1.039E3,1.989E3,6.56E2,2.3362E4,1.0528E4,5.6E1,2.68E2,3.99E2,6.804E3,3E0,3.5E1,9.04E2,1.8E1,7.49E2,1.755E3,4.3E1,6.3E1,2.85E2,1.946E3,1.18E2,3.2E1,4.5E1,5E0,1.302E3,3.33E2,1.1E1,1.651E3,1.017E3,9E0,4.92E2,5.47E2,1.391E3,5.98E2,9.8E1,5.58E2,7.986E3,1.5376E4,1.907E3,8.621E3,1E1,4.6E1,4.1E1,2.27E2,1.08E2,2.91E2,2.564E3,4.24E3,4E0,3.1E1,5.4E1,8.5E2,1.5E1,3E0,1.02E2,6.47E2,7.91E2,9.64E2,3.3E1,1E1,4.5E1,1.8E1,2.34E2,5.1E1,3.02E2,1.644E3,1.2E1,1.06E2,2.1E1,1.1E1,2.2E1,2.3E1,1E0,4E0,1.58E2,1.144E3,2.22E2,1.11E2,6E0,5E0,6.45E2,1.006E3,7E2,3.17E2,6E0,3E0,4.88E2,4E0,2.39E2,3.08E2],"tree_param":{"num_deleted":"0","num_feature":"12","num_nodes":"119","size_leaf_vector":"1"}},{"base_weights":[-8.145636E-2,-6.5394607E0,3.3626733E2,-9.007479E0,1.24801575E2,6.7821185E2,8.953586E1,-1.4157982E1,1.8800632E1,7.273056E2,8.971452E1,5.05863E2,1.3757534E3,3.8392494E1,2.6637506E2,1.3542733E0,-1.5107542E1,1.8495593E3,1.6599E1,4.229847E2,1.0504718E3,1.8699693E2,4.0080048E1,9.220133E2,2.8936557E2,4.5373465E2,1.7900039E3,-7.0613065E0,5.6246235E1,7.4568317E2,1.6733592E2,-8.052616E0,5.980388E1,-1.6351717E1,-7.6537414E0,2.0491854E1,2.1582603E3,1.682698E2,1.1901255E1,5.899232E2,1.2341667E2,1.272071E3,2.672638E2,2.240295E2,1.0082084E2,2.451187E1,5.0629177E1,1.1035006E3,3.6537238E2,2.0868721E2,6.3117303E2,6.1930383E2,9.377965E1,1.0639576E3,2.4563833E3,5.5055027E0,-1.9339466E1,8.448487E1,1.5007299E1,6.018494E2,7.519792E1,4.135486E2,1.0729274E2,-6.92963E-1,3.781508E-1,2.2071634E1,2.8755615E0,-6.16116E-1,-8.298597E-1,6.7674893E-1,-5.3845537E-1,1.1547139E2,2.7502182E1,1.0210312E1,6.475226E0,1.9730202E0,1.8293181E-1,-8.449421E-1,3.3115406E1,-5.9762435E0,7.8184085E0,2.5550186E1,9.91019E1,2.8928226E1,1.3515314E0,1.0371753E1,3.5322674E1,4.0994678E0,1.2115357E1,1.7929481E0,9.0719074E-1,9.8896885E-1,2.6534264E0,4.3965748E1,8.256053E1,2.1510695E1,1.1748524E0,1.9905104E1,7.0928054E0,2.1135641E1,4.847794E1,8.973795E0,3.6231316E1,2.6063029E-2,9.346689E0,2.1132725E1,6.2038033E1,5.5690712E1,1.5875192E2,-1.85575E-1,2.4029696E0,-4.0178582E-1,-1.0252442E0,3.4183297E0,8.704007E0,2.0576942E0,-2.3951142E-1,3.4502148E1,2.7258165E0,7.919477E0,2.4966698E1,7.7494636E0,-7.5195736E-1],"categories":[],"categories_nodes":[],"categories_segments":[],"categories_sizes":[],"default_left":[0,0,0,0,0,0,0,0,0,0,0,0,0,0,0,0,0,0,0,0,0,0,0,0,0,0,0,0,0,0,0,0,0,0,0,0,0,0,0,0,0,0,0,0,0,0,0,0,0,0,0,0,0,0,0,0,0,0,0,0,0,0,0,0,0,0,0,0,0,0,0,0,0,0,0,0,0,0,0,0,0,0,0,0,0,0,0,0,0,0,0,0,0,0,0,0,0,0,0,0,0,0,0,0,0,0,0,0,0,0,0,0,0,0,0,0,0,0,0,0,0,0,0],"id":6,"left_children":[1,3,5,7,9,11,13,15,17,19,21,23,25,27,29,31,33,35,37,39,41,43,45,47,49,51,53,55,57,59,61,63,65,67,69,-1,71,73,75,77,79,81,83,85,87,89,91,93,95,97,99,101,103,105,107,109,111,113,115,117,-1,119,121,-1,-1,-1,-1,-1,-1,-1,-1,-1,-1,-1,-1,-1,-1,-1,-1,-1,-1,-1,-1,-1,-1,-1,-1,-1,-1,-1,-1,-1,-1,-1,-1,-1,-1,-1,-1,-1,-1,-1,-1,-1,-1,-1,-1,-1,-1,-1,-1,-1,-1,-1,-1,-1,-1,-1,-1,-1,-1,-1,-1],"loss_changes":[1.2026067E8,1.760971E7,8.793558E7,7.637207E6,2.111712E7,5.18404E7,5.4795725E6,6.627E5,3.355677E7,4.96471E6,4.5699815E6,3.1446808E7,3.2035232E7,3.834348E5,6.331176E6,1.4278375E6,3.9303E5,3.559904E6,5.928939E6,1.4274765E6,4.172536E6,9.98635E5,1.02060125E5,1.17196E7,6.2936E6,1.610651E6,2.5932016E7,2.0782309E4,3.9350812E5,1.603352E6,1.640936E6,2.0294344E5,2.8959162E5,3.573E4,4.0056616E5,0E0,6.74596E5,3.218255E5,1.8341692E6,8.457625E5,1.147533E5,9.793824E6,5.0785425E5,1.638699E6,2.4124431E5,1.7847656E4,2.7095125E4,9.599048E6,6.770905E5,2.3487E6,2.693914E6,7.500975E5,8.67766E4,2.877116E6,2.5408928E7,2.6457066E4,7.310332E2,2.7836712E5,7.214877E4,9.760775E5,0E0,4.0246675E5,5.44968E5,0E0,0E0,0E0,0E0,0E0,0E0,0E0,0E0,0E0,0E0,0E0,0E0,0E0,0E0,0E0,0E0,0E0,0E0,0E0,0E0,0E0,0E0,0E0,0E0,0E0,0E0,0E0,0E0,0E0,0E0,0E0,0E0,0E0,0E0,0E0,0E0,0E0,0E0,0E0,0E0,0E0,0E0,0E0,0E0,0E0,0E0,0E0,0E0,0E0,0E0,0E0,0E0,0E0,0E0,0E0,0E0,0E0,0E0,0E0,0E0],"parents":[2147483647,0,0,1,1,2,2,3,3,4,4,5,5,6,6,7,7,8,8,9,9,10,10,11,11,12,12,13,13,14,14,15,15,16,16,17,17,18,18,19,19,20,20,21,21,22,22,23,23,24,24,25,25,26,26,27,27,28,28,29,29,30,30,31,31,32,32,33,33,34,34,36,36,37,37,38,38,39,39,40,40,41,41,42,42,43,43,44,44,45,45,46,46,47,47,48,48,49,49,50,50,51,51,52,52,53,53,54,54,55,55,56,56,57,57,58,58,59,59,61,61,62,62],"right_children":[2,4,6,8,10,12,14,16,18,20,22,24,26,28,30,32,34,36,38,40,42,44,46,48,50,52,54,56,58,60,62,64,66,68,70,-1,72,74,76,78,80,82,84,86,88,90,92,94,96,98,100,102,104,106,108,110,112,114,116,118,-1,120,122,-1,-1,-1,-1,-1,-1,-1,-1,-1,-1,-1,-1,-1,-1,-1,-1,-1,-1,-1,-1,-1,-1,-1,-1,-1,-1,-1,-1,-1,-1,-1,-1,-1,-1,-1,-1,-1,-1,-1,-1,-1,-1,-1,-1,-1,-1,-1,-1,-1,-1,-1,-1,-1,-1,-1,-1,-1,-1,-1,-1],"split_conditions":[1.0689706E5,4.4416363E4,3.3E2,5.53043E3,6.9E1,-4.5E1,-6.3E1,3.3E1,1.5E1,1.9E1,2.12E2,-1.37E2,2.33E2,-1.27E2,2E0,9.99474E2,1.66897E3,-1.28E2,7.9E1,1.2E1,-6.4E1,-7.8E1,1.0125045E5,2.33E2,-5.7E1,-3.9E1,7.274601E2,-1.53E2,-8.7E1,1.447153E5,-5.7E1,2.4803468E2,2E0,5.7E1,1.23E2,2.0491854E1,-4.1E1,-1.29E2,2.76E2,-1.28E2,5.946361E1,-9.1E1,3.755422E2,-8.1E1,1.5374872E5,-1.2E2,4.5278625E1,-1.46E2,-1.47E2,2.33E2,8.1397186E2,-4.3E1,1.0125045E5,8.934379E4,9.623411E4,-1.55E2,1E0,6E0,-7.5E1,1.239693E5,7.519792E1,9.562484E4,-4.2E1,-6.92963E-1,3.781508E-1,2.2071634E1,2.8755615E0,-6.16116E-1,-8.298597E-1,6.7674893E-1,-5.3845537E-1,1.1547139E2,2.7502182E1,1.0210312E1,6.475226E0,1.9730202E0,1.8293181E-1,-8.449421E-1,3.3115406E1,-5.9762435E0,7.8184085E0,2.5550186E1,9.91019E1,2.8928226E1,1.3515314E0,1.0371753E1,3.5322674E1,4.0994678E0,1.2115357E1,1.7929481E0,9.0719074E-1,9.8896885E-1,2.6534264E0,4.3965748E1,8.256053E1,2.1510695E1,1.1748524E0,1.9905104E1,7.0928054E0,2.1135641E1,4.847794E1,8.973795E0,3.6231316E1,2.6063029E-2,9.346689E0,2.1132725E1,6.2038033E1,5.5690712E1,1.5875192E2,-1.85575E-1,2.4029696E0,-4.0178582E-1,-1.0252442E0,3.4183297E0,8.704007E0,2.0576942E0,-2.3951142E-1,3.4502148E1,2.7258165E0,7.919477E0,2.4966698E1,7.7494636E0,-7.5195736E-1],"split_indices":[11,11,10,11,10,7,7,10,10,3,10,7,10,7,8,11,11,7,10,3,7,7,6,10,7,7,2,7,7,5,7,11,10,10,10,0,7,7,10,7,2,7,2,7,5,7,2,7,7,10,2,7,6,5,6,7,8,8,7,5,0,5,7,0,0,0,0,0,0,0,0,0,0,0,0,0,0,0,0,0,0,0,0,0,0,0,0,0,0,0,0,0,0,0,0,0,0,0,0,0,0,0,0,0,0,0,0,0,0,0,0,0,0,0,0,0,0,0,0,0,0,0,0],"split_type":[0,0,0,0,0,0,0,0,0,0,0,0,0,0,0,0,0,0,0,0,0,0,0,0,0,0,0,0,0,0,0,0,0,0,0,0,0,0,0,0,0,0,0,0,0,0,0,0,0,0,0,0,0,0,0,0,0,0,0,0,0,0,0,0,0,0,0,0,0,0,0,0,0,0,0,0,0,0,0,0,0,0,0,0,0,0,0,0,0,0,0,0,0,0,0,0,0,0,0,0,0,0,0,0,0,0,0,0,0,0,0,0,0,0,0,0,0,0,0,0,0,0,0],"sum_hessian":[5.5363E4,5.4321E4,1.042E3,5.332E4,1.001E3,4.36E2,6.06E2,4.4988E4,8.332E3,5.4E1,9.47E2,3.51E2,8.5E1,4.71E2,1.35E2,2.595E3,4.2393E4,9E0,8.323E3,2.9E1,2.5E1,3.19E2,6.28E2,1.19E2,2.32E2,2.7E1,5.8E1,1.33E2,3.38E2,2.2E1,1.13E2,2.236E3,3.59E2,3.6328E4,6.065E3,2E0,7E0,2.49E2,8.074E3,1.8E1,1.1E1,1.9E1,6E0,2.22E2,9.7E1,2.55E2,3.73E2,8.9E1,3E1,1.89E2,4.3E1,1.8E1,9E0,2.9E1,2.9E1,6.6E1,6.7E1,2E2,1.38E2,2E1,2E0,2.1E1,9.2E1,1.63E3,6.06E2,1E0,3.58E2,2.089E3,3.4239E4,7.77E2,5.288E3,6E0,1E0,1.27E2,1.22E2,1.858E3,6.216E3,2E0,1.6E1,1E0,1E1,1E1,9E0,2E0,4E0,2.16E2,6E0,8.7E1,1E1,9E1,1.65E2,2.8E1,3.45E2,6.5E1,2.4E1,2.5E1,5E0,4.8E1,1.41E2,2.8E1,1.5E1,4E0,1.4E1,5E0,4E0,7E0,2.2E1,1.1E1,1.8E1,5.5E1,1.1E1,7E0,6E1,1.71E2,2.9E1,5.9E1,7.9E1,1.7E1,3E0,6E0,1.5E1,6.6E1,2.6E1],"tree_param":{"num_deleted":"0","num_feature":"12","num_nodes":"123","size_leaf_vector":"1"}},{"base_weights":[2.2728223E-1,7.338056E0,-8.253577E0,1.9675809E0,3.06665E2,-1.2272552E1,2.159558E-1,7.2059526E0,-1.1888542E1,5.698019E2,5.0188957E1,-1.0481289E1,-1.638045E1,8.023107E1,-5.9643607E0,2.1031086E-1,7.668031E2,-9.614906E0,-1.4081696E1,1.7227545E2,1.0316115E3,3.4585163E1,1.0197935E2,-1.1610756E1,2.0052172E1,-1.655842E1,-1.503905E1,3.823066E1,1.3842743E2,-7.983113E0,1.6965847E0,2.3790676E1,-1.4766402E0,3.2734152E2,1.00835046E3,-1.426207E1,2.869266E1,-1.2852975E1,-1.5069697E1,1.4014719E2,3.858175E2,8.0417194E2,2.018536E3,6.655517E1,2.4640348E1,1.15944824E2,5.4582043E1,-5.1772614E0,-1.210261E1,1.8158287E1,5.244684E1,-8.146931E-1,-8.4409916E-1,-1.37804365E1,-7.822773E-1,3.0292706E1,8.475416E1,3.343842E2,9.12133E1,-4.2635545E-1,-1.3481196E1,-8.998784E0,1.444239E1,9.224782E-1,6.1803045E0,-1.7663331E-1,2.1457723E-1,1.0326358E1,2.582875E1,3.6941475E1,7.016229E1,-7.7565473E-1,-6.210558E-1,3.5417714E0,-5.561012E-1,-7.059317E-1,-2.3532033E-1,-7.182659E-1,-7.962716E-1,4.7283397E0,1.0221461E1,1.0378581E1,8.539993E1,3.6107807E1,1.10902016E2,1.2712608E1,1.4124593E2,1.5714024E0,5.2448826E0,2.215998E-1,1.8143021E0,3.9512136E0,7.018327E0,2.9420393E0,-2.3247758E-1,-5.302145E-1,2.9484856E-1,-6.829119E-1,-4.638836E-1,6.4695364E-1,1.5058159E0,1.4525098E0,5.0887427E0,-4.5653868E-1,-6.95969E-1,2.5619733E0,2.9443905E-1,-3.0808118E-1,6.4510627E0,2.293671E1,3.2392604E0,6.892598E0,1.379477E0,-6.2518376E-1,1.8392504E0,-7.8616285E-1,-2.4289243E-1,-4.961782E-1,1.9559781E-1,1.5888786E0,-2.5415584E-1],"categories":[],"categories_nodes":[],"categories_segments":[],"categories_sizes":[],"default_left":[0,0,0,0,0,0,0,0,0,0,0,0,0,0,0,0,0,0,0,0,0,0,0,0,0,0,0,0,0,0,0,0,0,0,0,0,0,0,0,0,0,0,0,0,0,0,0,0,0,0,0,0,0,0,0,0,0,0,0,0,0,0,0,0,0,0,0,0,0,0,0,0,0,0,0,0,0,0,0,0,0,0,0,0,0,0,0,0,0,0,0,0,0,0,0,0,0,0,0,0,0,0,0,0,0,0,0,0,0,0,0,0,0,0,0,0,0,0,0,0,0],"id":7,"left_children":[1,3,5,7,9,11,13,15,17,19,21,23,25,27,29,31,33,35,37,39,41,43,45,47,49,51,53,55,57,59,61,63,65,67,69,71,73,75,77,79,81,83,85,87,89,91,93,95,97,99,101,-1,-1,103,-1,105,107,109,111,113,115,117,119,-1,-1,-1,-1,-1,-1,-1,-1,-1,-1,-1,-1,-1,-1,-1,-1,-1,-1,-1,-1,-1,-1,-1,-1,-1,-1,-1,-1,-1,-1,-1,-1,-1,-1,-1,-1,-1,-1,-1,-1,-1,-1,-1,-1,-1,-1,-1,-1,-1,-1,-1,-1,-1,-1,-1,-1,-1,-1],"loss_changes":[3.3401395E6,4.8429388E7,8.598236E5,2.1483405E6,3.5807692E7,1.2588375E5,4.020916E6,1.1413114E8,4.0354375E4,4.792064E7,2.1466719E5,4.1172588E5,9.92375E2,1.4197178E6,1.167475E5,8.4664994E5,2.0475472E7,7.10715E5,4.82125E3,9.20153E5,2.553708E7,6.480864E4,3.4710875E4,3.63495E4,2.5183531E4,1.17E2,2.5767188E2,1.2299506E5,2.2269695E6,2.4820012E5,2.1483567E5,7.5529044E5,2.3558116E5,1.516524E6,1.2373744E7,8.0039375E3,7.256412E5,1.8987875E4,1.1479375E3,3.46918E5,3.8875878E6,9.99418E6,3.058088E7,6.269947E4,3.7728977E4,3.1285812E4,4.309617E3,4.928457E4,4.6846625E4,2.4824562E4,2.3587953E4,0E0,0E0,8.5703125E0,0E0,1.4896372E5,1.9799931E5,1.5459385E6,5.837274E5,1.131634E6,6.678081E4,1.0271047E4,2.4352736E5,0E0,0E0,0E0,0E0,0E0,0E0,0E0,0E0,0E0,0E0,0E0,0E0,0E0,0E0,0E0,0E0,0E0,0E0,0E0,0E0,0E0,0E0,0E0,0E0,0E0,0E0,0E0,0E0,0E0,0E0,0E0,0E0,0E0,0E0,0E0,0E0,0E0,0E0,0E0,0E0,0E0,0E0,0E0,0E0,0E0,0E0,0E0,0E0,0E0,0E0,0E0,0E0,0E0,0E0,0E0,0E0,0E0,0E0],"parents":[2147483647,0,0,1,1,2,2,3,3,4,4,5,5,6,6,7,7,8,8,9,9,10,10,11,11,12,12,13,13,14,14,15,15,16,16,17,17,18,18,19,19,20,20,21,21,22,22,23,23,24,24,25,25,26,26,27,27,28,28,29,29,30,30,31,31,32,32,33,33,34,34,35,35,36,36,37,37,38,38,39,39,40,40,41,41,42,42,43,43,44,44,45,45,46,46,47,47,48,48,49,49,50,50,53,53,55,55,56,56,57,57,58,58,59,59,60,60,61,61,62,62],"right_children":[2,4,6,8,10,12,14,16,18,20,22,24,26,28,30,32,34,36,38,40,42,44,46,48,50,52,54,56,58,60,62,64,66,68,70,72,74,76,78,80,82,84,86,88,90,92,94,96,98,100,102,-1,-1,104,-1,106,108,110,112,114,116,118,120,-1,-1,-1,-1,-1,-1,-1,-1,-1,-1,-1,-1,-1,-1,-1,-1,-1,-1,-1,-1,-1,-1,-1,-1,-1,-1,-1,-1,-1,-1,-1,-1,-1,-1,-1,-1,-1,-1,-1,-1,-1,-1,-1,-1,-1,-1,-1,-1,-1,-1,-1,-1,-1,-1,-1,-1,-1,-1],"split_conditions":[3.32E2,3.25E2,7.66E2,2.33E2,3.3E2,5.62E2,7.73E2,2.31E2,2.8E2,5.2244586E2,3E0,5.4E2,7.61E2,3.8017548E2,9.48E2,2.2E1,1E1,2.74E2,3.07E2,4.1996487E2,6E0,2E0,1.239693E5,3.46E2,1.3233907E3,2.6974203E2,1.2070488E2,6E0,2E0,8.04E2,1.1E1,1.8057358E5,1.2477981E5,1.2096873E5,1.137804E5,2.49E2,2.76E2,2.98E2,3.18E2,1E1,1.4503773E3,1.8057358E5,3E0,1.0125045E5,4.1996487E2,6.5762994E2,1.2157228E3,3.41E2,4.18E2,2.3E1,2.2E1,-8.146931E-1,-8.4409916E-1,2E0,-7.822773E-1,4E0,1.2E1,3E0,3E0,7.92E2,9.11E2,1.5374872E5,9.94E2,9.224782E-1,6.1803045E0,-1.7663331E-1,2.1457723E-1,1.0326358E1,2.582875E1,3.6941475E1,7.016229E1,-7.7565473E-1,-6.210558E-1,3.5417714E0,-5.561012E-1,-7.059317E-1,-2.3532033E-1,-7.182659E-1,-7.962716E-1,4.7283397E0,1.0221461E1,1.0378581E1,8.539993E1,3.6107807E1,1.10902016E2,1.2712608E1,1.4124593E2,1.5714024E0,5.2448826E0,2.215998E-1,1.8143021E0,3.9512136E0,7.018327E0,2.9420393E0,-2.3247758E-1,-5.302145E-1,2.9484856E-1,-6.829119E-1,-4.638836E-1,6.4695364E-1,1.5058159E0,1.4525098E0,5.0887427E0,-4.5653868E-1,-6.95969E-1,2.5619733E0,2.9443905E-1,-3.0808118E-1,6.4510627E0,2.293671E1,3.2392604E0,6.892598E0,1.379477E0,-6.2518376E-1,1.8392504E0,-7.8616285E-1,-2.4289243E-1,-4.961782E-1,1.9559781E-1,1.5888786E0,-2.5415584E-1],"split_indices":[10,10,10,10,10,10,10,10,10,2,9,10,10,2,10,10,9,10,10,2,8,9,5,10,2,2,2,8,8,10,9,6,6,5,6,10,10,10,10,9,1,5,9,6,2,2,2,10,10,4,3,0,0,4,0,8,4,9,9,10,10,6,10,0,0,0,0,0,0,0,0,0,0,0,0,0,0,0,0,0,0,0,0,0,0,0,0,0,0,0,0,0,0,0,0,0,0,0,0,0,0,0,0,0,0,0,0,0,0,0,0,0,0,0,0,0,0,0,0,0,0],"split_type":[0,0,0,0,0,0,0,0,0,0,0,0,0,0,0,0,0,0,0,0,0,0,0,0,0,0,0,0,0,0,0,0,0,0,0,0,0,0,0,0,0,0,0,0,0,0,0,0,0,0,0,0,0,0,0,0,0,0,0,0,0,0,0,0,0,0,0,0,0,0,0,0,0,0,0,0,0,0,0,0,0,0,0,0,0,0,0,0,0,0,0,0,0,0,0,0,0,0,0,0,0,0,0,0,0,0,0,0,0,0,0,0,0,0,0,0,0,0,0,0,0],"sum_hessian":[5.5385E4,3.0126E4,2.5259E4,2.9596E4,5.3E2,1.713E4,8.129E3,2.1477E4,8.119E3,2.61E2,2.69E2,1.1931E4,5.199E3,5.82E2,7.547E3,2.1282E4,1.95E2,3.989E3,4.13E3,1.41E2,1.2E2,2.08E2,6.1E1,1.1506E4,4.25E2,4.58E3,6.19E2,3.39E2,2.43E2,5.973E3,1.574E3,1.42E3,1.9862E4,7E1,1.25E2,3.558E3,4.31E2,1.847E3,2.283E3,1.24E2,1.7E1,9.9E1,2.1E1,4.8E1,1.6E2,4.6E1,1.5E1,8.18E2,1.0688E4,4.03E2,2.2E1,2.548E3,2.032E3,2.09E2,4.1E2,2.91E2,4.8E1,4.6E1,1.97E2,2.516E3,3.457E3,8.56E2,7.18E2,1.349E3,7.1E1,1.4643E4,5.219E3,4.4E1,2.6E1,7.6E1,4.9E1,2.114E3,1.444E3,2.09E2,2.22E2,1.598E3,2.49E2,1.262E3,1.021E3,7.4E1,5E1,1.6E1,1E0,9.5E1,4E0,7E0,1.4E1,2.6E1,2.2E1,5.9E1,1.01E2,2E1,2.6E1,1.4E1,1E0,5.49E2,2.69E2,6.89E3,3.798E3,2.82E2,1.21E2,1.6E1,6E0,8E0,2.01E2,1.56E2,1.35E2,1.6E1,3.2E1,3.1E1,1.5E1,1.13E2,8.4E1,1.9E3,6.16E2,2.743E3,7.14E2,7.99E2,5.7E1,3.8E2,3.38E2],"tree_param":{"num_deleted":"0","num_feature":"12","num_nodes":"121","size_leaf_vector":"1"}},{"base_weights":[-2.9033676E-1,-1.0777433E1,6.006834E1,-1.2996064E1,7.3743863E0,1.6579024E2,1.1547755E1,-1.4478457E1,-8.844589E0,6.658617E1,-7.253634E-1,1.2758808E2,5.8559827E2,1.8362436E1,-3.7164001E0,-1.5329786E1,-1.3221005E1,2.4313338E0,-1.1954484E1,2.0081784E2,2.4728573E1,1.2735133E1,-6.10684E0,5.6148755E2,1.07599945E2,2.8114017E2,1.7295256E3,2.644513E1,4.8800027E-1,3.0242171E0,-8.3461485E0,-1.4627316E1,-1.5911387E1,3.421409E0,-1.358101E1,3.820774E1,-5.3284206E0,9.287031E-1,-1.2923152E1,1.00074615E3,1.5968085E2,2.2456049E2,2.2113787E1,4.0251038E1,3.7194314E0,-2.1008859E0,-1.1710052E1,2.2093265E2,7.9792896E2,2.7066693E2,8.388517E1,1.2696747E2,7.828816E2,1.1322867E3,3.706633E3,9.863855E0,4.925586E1,-8.334191E0,1.1894221E1,-1.288255E0,1.3984338E1,-4.06604E0,-1.1917101E1,-4.5526502E-1,-7.4262214E-1,-7.8502E-1,-8.2150286E-1,2.7947326E0,-3.473699E-1,-5.1737374E-1,-7.2883886E-1,4.1481557E0,1.158513E0,1.3096482E0,-3.3734915E-1,-2.4495076E-1,7.298162E-1,-5.7195073E-1,-7.515949E-1,2.5212957E1,9.9491714E1,1.7219946E1,6.4045177E0,4.874917E0,2.149678E1,1.8566027E0,3.1387758E-1,5.234549E0,1.3942084E0,1.0775626E0,-2.0014716E-2,2.487882E-1,-4.0031838E-1,-6.450544E-1,-1.0558168E-1,7.478264E0,2.4092703E1,5.4489544E1,2.0079644E0,7.9084945E0,4.069266E1,1.2994659E1,3.0799255E0,1.5574921E1,5.20955E0,5.1633667E1,2.538523E1,1.7873045E1,8.343559E1,7.29721E1,2.48076E2,2.9471314E0,1.7516062E-1,5.723134E0,8.228311E-1,-4.5090017E-1,2.9544258E0,1.7707682E0,-3.2992205E-1,1.9901317E0,-1.0537481E-1,8.699782E0,4.4945994E-1,-2.2875793E-1,1.295372E0,-3.8198763E-1,-7.5111616E-1],"categories":[],"categories_nodes":[],"categories_segments":[],"categories_sizes":[],"default_left":[0,0,0,0,0,0,0,0,0,0,0,0,0,0,0,0,0,0,0,0,0,0,0,0,0,0,0,0,0,0,0,0,0,0,0,0,0,0,0,0,0,0,0,0,0,0,0,0,0,0,0,0,0,0,0,0,0,0,0,0,0,0,0,0,0,0,0,0,0,0,0,0,0,0,0,0,0,0,0,0,0,0,0,0,0,0,0,0,0,0,0,0,0,0,0,0,0,0,0,0,0,0,0,0,0,0,0,0,0,0,0,0,0,0,0,0,0,0,0,0,0,0,0,0,0,0,0],"id":8,"left_children":[1,3,5,7,9,11,13,15,17,19,21,23,25,27,29,31,33,35,37,39,41,43,45,47,49,51,53,55,57,59,61,63,65,67,69,71,73,75,77,79,81,83,85,87,89,91,93,95,97,99,101,103,105,107,109,111,113,115,117,119,121,123,125,-1,-1,-1,-1,-1,-1,-1,-1,-1,-1,-1,-1,-1,-1,-1,-1,-1,-1,-1,-1,-1,-1,-1,-1,-1,-1,-1,-1,-1,-1,-1,-1,-1,-1,-1,-1,-1,-1,-1,-1,-1,-1,-1,-1,-1,-1,-1,-1,-1,-1,-1,-1,-1,-1,-1,-1,-1,-1,-1,-1,-1,-1,-1,-1],"loss_changes":[3.5085868E7,1.9019095E6,4.2087176E7,2.588435E5,2.4671138E6,4.1318264E7,5.851825E5,3.29905E4,3.883953E5,3.4729568E6,3.279292E5,2.0468196E7,7.439352E7,5.618449E5,5.4232426E4,7.3185E3,7.508825E4,6.6509425E5,1.08346625E5,4.6774775E6,2.42185E5,3.2061153E5,7.256642E4,8.197924E6,8.732406E6,1.3128276E7,4.8939264E7,1.0124165E6,1.220601E5,3.348179E4,1.5694133E4,1.028725E4,8.47E2,1.4511489E5,3.93245E4,2.854522E5,8.8220625E4,4.849934E4,2.5097125E4,2.4340935E6,7.7866825E5,1.1465441E5,1.1107266E5,2.512984E5,7.163428E4,7.88995E4,1.53831875E4,7.472675E5,1.3447248E7,1.7408938E7,7.742953E6,5.22336E5,2.225184E6,1.4366392E7,2.0958656E7,4.8428534E5,2.4084692E6,3.2068316E4,2.3033205E5,1.7218531E4,1.5829169E5,7.290754E3,7.336492E3,0E0,0E0,0E0,0E0,0E0,0E0,0E0,0E0,0E0,0E0,0E0,0E0,0E0,0E0,0E0,0E0,0E0,0E0,0E0,0E0,0E0,0E0,0E0,0E0,0E0,0E0,0E0,0E0,0E0,0E0,0E0,0E0,0E0,0E0,0E0,0E0,0E0,0E0,0E0,0E0,0E0,0E0,0E0,0E0,0E0,0E0,0E0,0E0,0E0,0E0,0E0,0E0,0E0,0E0,0E0,0E0,0E0,0E0,0E0,0E0,0E0,0E0,0E0,0E0],"parents":[2147483647,0,0,1,1,2,2,3,3,4,4,5,5,6,6,7,7,8,8,9,9,10,10,11,11,12,12,13,13,14,14,15,15,16,16,17,17,18,18,19,19,20,20,21,21,22,22,23,23,24,24,25,25,26,26,27,27,28,28,29,29,30,30,31,31,32,32,33,33,34,34,35,35,36,36,37,37,38,38,39,39,40,40,41,41,42,42,43,43,44,44,45,45,46,46,47,47,48,48,49,49,50,50,51,51,52,52,53,53,54,54,55,55,56,56,57,57,58,58,59,59,60,60,61,61,62,62],"right_children":[2,4,6,8,10,12,14,16,18,20,22,24,26,28,30,32,34,36,38,40,42,44,46,48,50,52,54,56,58,60,62,64,66,68,70,72,74,76,78,80,82,84,86,88,90,92,94,96,98,100,102,104,106,108,110,112,114,116,118,120,122,124,126,-1,-1,-1,-1,-1,-1,-1,-1,-1,-1,-1,-1,-1,-1,-1,-1,-1,-1,-1,-1,-1,-1,-1,-1,-1,-1,-1,-1,-1,-1,-1,-1,-1,-1,-1,-1,-1,-1,-1,-1,-1,-1,-1,-1,-1,-1,-1,-1,-1,-1,-1,-1,-1,-1,-1,-1,-1,-1,-1,-1,-1,-1,-1,-1],"split_conditions":[9.2621565E-1,7.786914E-1,3.3E2,4.2747965E-1,1.03E2,3.25E2,1.0399265E0,1.5184213E-1,1.61E2,-1.08E2,1.7034015E2,8.8351364E1,-4.2E1,8.04E2,1.0787326E0,-1.25E2,2E1,-1.36E2,4.681214E1,1.5E1,3E0,3.3E2,5.62E2,2.12E2,6.9E1,-5.7E1,1.3139461E5,7.66E2,9.48E2,5E0,-8.7E1,2.5E1,-6.9E1,-1.46E2,1.64E2,6.4E1,1.2E1,6.3761777E-1,5.62E2,1.4805211E5,4.681214E1,8.784007E-1,-6.1E1,-1.52E2,6.2069157E1,-6.8E1,9.48E2,2.5E1,2.33E2,6E1,-1.36E2,-1.47E2,4E0,1.3E1,4E0,3.32E2,7.73E2,2.4238594E3,9.94E2,3.32E2,-1.61E2,2.2817822E3,5.62E2,-4.5526502E-1,-7.4262214E-1,-7.8502E-1,-8.2150286E-1,2.7947326E0,-3.473699E-1,-5.1737374E-1,-7.2883886E-1,4.1481557E0,1.158513E0,1.3096482E0,-3.3734915E-1,-2.4495076E-1,7.298162E-1,-5.7195073E-1,-7.515949E-1,2.5212957E1,9.9491714E1,1.7219946E1,6.4045177E0,4.874917E0,2.149678E1,1.8566027E0,3.1387758E-1,5.234549E0,1.3942084E0,1.0775626E0,-2.0014716E-2,2.487882E-1,-4.0031838E-1,-6.450544E-1,-1.0558168E-1,7.478264E0,2.4092703E1,5.4489544E1,2.0079644E0,7.9084945E0,4.069266E1,1.2994659E1,3.0799255E0,1.5574921E1,5.20955E0,5.1633667E1,2.538523E1,1.7873045E1,8.343559E1,7.29721E1,2.48076E2,2.9471314E0,1.7516062E-1,5.723134E0,8.228311E-1,-4.5090017E-1,2.9544258E0,1.7707682E0,-3.2992205E-1,1.9901317E0,-1.0537481E-1,8.699782E0,4.4945994E-1,-2.2875793E-1,1.295372E0,-3.8198763E-1,-7.5111616E-1],"split_indices":[0,0,10,0,10,10,0,0,10,7,2,2,7,10,0,7,10,7,2,10,10,10,10,10,10,7,5,10,10,8,7,10,7,7,10,10,10,0,10,6,2,0,7,7,2,7,10,3,10,10,7,7,8,4,8,10,10,2,10,10,7,2,10,0,0,0,0,0,0,0,0,0,0,0,0,0,0,0,0,0,0,0,0,0,0,0,0,0,0,0,0,0,0,0,0,0,0,0,0,0,0,0,0,0,0,0,0,0,0,0,0,0,0,0,0,0,0,0,0,0,0,0,0,0,0,0,0],"split_type":[0,0,0,0,0,0,0,0,0,0,0,0,0,0,0,0,0,0,0,0,0,0,0,0,0,0,0,0,0,0,0,0,0,0,0,0,0,0,0,0,0,0,0,0,0,0,0,0,0,0,0,0,0,0,0,0,0,0,0,0,0,0,0,0,0,0,0,0,0,0,0,0,0,0,0,0,0,0,0,0,0,0,0,0,0,0,0,0,0,0,0,0,0,0,0,0,0,0,0,0,0,0,0,0,0,0,0,0,0,0,0,0,0,0,0,0,0,0,0,0,0,0,0,0,0,0,0],"sum_hessian":[5.5427E4,4.7223E4,8.204E3,4.208E4,5.143E3,2.58E3,5.624E3,3.1006E4,1.1074E4,6.18E2,4.525E3,2.366E3,2.14E2,3.888E3,1.736E3,1.8482E4,1.2524E4,2.394E3,8.68E3,1.46E2,4.72E2,1.292E3,3.233E3,1.03E2,2.263E3,1.7E2,4.4E1,2.677E3,1.211E3,7.07E2,1.029E3,8.383E3,1.0099E4,2.65E2,1.2259E4,4.26E2,1.968E3,6.07E2,8.073E3,6E0,1.4E2,5E0,4.67E2,3.18E2,9.74E2,1.886E3,1.347E3,4.3E1,6E1,2.86E2,1.977E3,1.31E2,3.9E1,3.5E1,9E0,1.551E3,1.126E3,6.83E2,5.28E2,5.08E2,1.99E2,4.69E2,5.6E2,3.3E2,8.053E3,7.201E3,2.898E3,4.3E1,2.22E2,2.889E3,9.37E3,1.06E2,3.2E2,8.4E1,1.884E3,4.26E2,1.81E2,4.742E3,3.331E3,5E0,1E0,1.9E1,1.21E2,4E0,1E0,2.39E2,2.28E2,5E1,2.68E2,1.82E2,7.92E2,8.58E2,1.028E3,1.198E3,1.49E2,3.5E1,8E0,4.3E1,1.7E1,2.38E2,4.8E1,2.21E2,1.756E3,1.3E1,1.18E2,1.9E1,2E1,1.5E1,2E1,4E0,5E0,1.77E2,1.374E3,3.76E2,7.5E2,6.77E2,6E0,2.32E2,2.96E2,9E0,4.99E2,5E0,1.94E2,4.62E2,7E0,2.37E2,3.23E2],"tree_param":{"num_deleted":"0","num_feature":"12","num_nodes":"127","size_leaf_vector":"1"}},{"base_weights":[2.1762478E-1,-5.4819283E0,2.902815E2,-9.929523E0,5.9624058E1,5.9093604E2,8.064976E1,-1.3028025E1,6.449545E0,9.249194E2,4.1843914E1,4.457625E2,1.2468436E3,3.273407E1,2.3959752E2,1.2861843E0,-1.3837475E1,4.2487896E1,-3.0698588E0,7.6234845E2,1.9420836E3,1.6622328E2,2.195267E1,8.1356586E2,2.615387E2,4.7423212E2,1.5367247E3,-1.2309757E1,4.991641E1,7.391912E2,1.6356723E2,-9.559078E0,4.939293E1,-1.448924E1,-8.788896E0,1.4100041E2,3.4476677E1,6.524505E-1,-8.433862E0,1.5161106E3,6.226039E2,4.427569E0,2.1627063E3,1.9086111E2,1.10240295E2,5.4468197E1,1.5221833E1,9.7802454E2,3.307412E2,1.7642128E2,5.848611E2,6.533239E2,5.6769432E1,1.8163957E2,1.7542561E3,-2.336347E0,-2.181568E1,7.939701E1,7.2827463E0,5.3903973E2,6.774997E1,2.243557E2,1.9092136E1,-6.905059E-1,1.759895E-1,2.1817936E1,2.279043E0,-7.566631E-1,-6.633148E-1,-1.1068718E-2,-5.396394E-1,3.551878E0,9.0607815E0,9.1041595E-1,2.3496425E0,-1.656939E-1,6.0593337E-1,-4.592877E-1,-7.927706E-2,2.040194E1,8.018074E1,2.804488E1,7.4232254E1,1.4669534E2,5.5660236E1,9.24663E0,3.827722E1,6.4553256E0,1.4836472E0,2.2977254E0,5.0904512E0,4.349211E-1,1.6748103E0,3.9408337E1,7.44283E1,2.012075E1,8.63773E-1,1.9816246E1,5.3440413E0,1.8613035E1,4.3036274E1,4.4408504E1,1.1224875E1,1.0170581E1,-1.3006614E0,4.3482566E0,1.7100004E1,7.574599E1,1.608507E2,-3.982464E-1,1.3521166E0,-8.3065075E-1,-1.2811388E0,2.9533756E0,5.84884E0,1.6195959E0,-7.0522815E-1,2.8558271E1,1.4288505E0,5.840322E0,1.8422726E1,3.1339438E0,-1.7620611E0],"categories":[],"categories_nodes":[],"categories_segments":[],"categories_sizes":[],"default_left":[0,0,0,0,0,0,0,0,0,0,0,0,0,0,0,0,0,0,0,0,0,0,0,0,0,0,0,0,0,0,0,0,0,0,0,0,0,0,0,0,0,0,0,0,0,0,0,0,0,0,0,0,0,0,0,0,0,0,0,0,0,0,0,0,0,0,0,0,0,0,0,0,0,0,0,0,0,0,0,0,0,0,0,0,0,0,0,0,0,0,0,0,0,0,0,0,0,0,0,0,0,0,0,0,0,0,0,0,0,0,0,0,0,0,0,0,0,0,0,0,0,0,0],"id":9,"left_children":[1,3,5,7,9,11,13,15,17,19,21,23,25,27,29,31,33,35,37,39,41,43,45,47,49,51,53,55,57,59,61,63,65,67,69,71,73,75,77,79,81,-1,83,85,87,89,91,93,95,97,99,101,103,105,107,109,111,113,115,117,-1,119,121,-1,-1,-1,-1,-1,-1,-1,-1,-1,-1,-1,-1,-1,-1,-1,-1,-1,-1,-1,-1,-1,-1,-1,-1,-1,-1,-1,-1,-1,-1,-1,-1,-1,-1,-1,-1,-1,-1,-1,-1,-1,-1,-1,-1,-1,-1,-1,-1,-1,-1,-1,-1,-1,-1,-1,-1,-1,-1,-1,-1],"loss_changes":[9.170981E7,1.5754092E7,6.732791E7,2.584607E6,5.348598E7,4.1245984E7,4.79791E6,4.96215E5,2.7796315E6,1.0094752E7,8.432898E6,2.4247904E7,1.6964504E7,3.767582E5,5.424794E6,1.1967996E6,1.33246E5,1.3312635E6,1.2799064E5,5.58678E6,3.488872E6,6.2723E5,6.4282825E5,9.205096E6,6.556747E6,1.6824865E6,1.6483472E7,1.2747902E4,4.418387E5,1.611445E6,1.119866E6,1.0412958E5,6.026192E5,2.80715E4,7.960747E4,3.4445025E5,3.18213E5,1.7217734E5,1.3507234E4,2.18312E5,2.039706E6,0E0,3.208968E6,9.65708E5,2.1808912E5,1.9845612E5,2.9034575E5,7.45356E6,7.12001E5,2.909035E6,2.61203E6,1.4119395E6,1.0240682E5,1.0689634E5,1.2280944E7,1.1294528E4,9.410156E2,1.51998E5,7.832444E4,2.460615E5,0E0,1.351757E6,9.456923E4,0E0,0E0,0E0,0E0,0E0,0E0,0E0,0E0,0E0,0E0,0E0,0E0,0E0,0E0,0E0,0E0,0E0,0E0,0E0,0E0,0E0,0E0,0E0,0E0,0E0,0E0,0E0,0E0,0E0,0E0,0E0,0E0,0E0,0E0,0E0,0E0,0E0,0E0,0E0,0E0,0E0,0E0,0E0,0E0,0E0,0E0,0E0,0E0,0E0,0E0,0E0,0E0,0E0,0E0,0E0,0E0,0E0,0E0,0E0,0E0],"parents":[2147483647,0,0,1,1,2,2,3,3,4,4,5,5,6,6,7,7,8,8,9,9,10,10,11,11,12,12,13,13,14,14,15,15,16,16,17,17,18,18,19,19,20,20,21,21,22,22,23,23,24,24,25,25,26,26,27,27,28,28,29,29,30,30,31,31,32,32,33,33,34,34,35,35,36,36,37,37,38,38,39,39,40,40,42,42,43,43,44,44,45,45,46,46,47,47,48,48,49,49,50,50,51,51,52,52,53,53,54,54,55,55,56,56,57,57,58,58,59,59,61,61,62,62],"right_children":[2,4,6,8,10,12,14,16,18,20,22,24,26,28,30,32,34,36,38,40,42,44,46,48,50,52,54,56,58,60,62,64,66,68,70,72,74,76,78,80,82,-1,84,86,88,90,92,94,96,98,100,102,104,106,108,110,112,114,116,118,-1,120,122,-1,-1,-1,-1,-1,-1,-1,-1,-1,-1,-1,-1,-1,-1,-1,-1,-1,-1,-1,-1,-1,-1,-1,-1,-1,-1,-1,-1,-1,-1,-1,-1,-1,-1,-1,-1,-1,-1,-1,-1,-1,-1,-1,-1,-1,-1,-1,-1,-1,-1,-1,-1,-1,-1,-1,-1,-1,-1,-1,-1],"split_conditions":[1.0689706E5,1.740302E4,3.3E2,4.106551E3,6.9E1,-4.5E1,-6.3E1,3.2E1,1.54E2,1.5374872E5,2.12E2,-1.37E2,2.33E2,-1.27E2,-6E1,7.4962E2,1.514668E3,3.8E1,4.77E2,6E0,9.278085E4,-7.8E1,3.32E2,2.33E2,-5.7E1,9.5758984E2,8.7588E4,-1.53E2,-8.7E1,1.4805211E5,-4.3E1,1.8375092E2,4E0,6.0096826E2,1.4E2,5.2886665E3,6.634016E3,9.44075E3,-4.5E1,1.0566995E2,-5.9E1,4.427569E0,1.0236421E3,-7.9E1,2.5E1,-4.2E1,4.4416363E4,1.2477981E5,-1.47E2,2.33E2,7.032346E2,1.099606E5,1.099606E5,1.2211653E5,1.4805211E5,-1.55E2,1.0266733E2,-9.8E1,-7.5E1,9.451795E2,6.774997E1,-4.8E1,-4.1E1,-6.905059E-1,1.759895E-1,2.1817936E1,2.279043E0,-7.566631E-1,-6.633148E-1,-1.1068718E-2,-5.396394E-1,3.551878E0,9.0607815E0,9.1041595E-1,2.3496425E0,-1.656939E-1,6.0593337E-1,-4.592877E-1,-7.927706E-2,2.040194E1,8.018074E1,2.804488E1,7.4232254E1,1.4669534E2,5.5660236E1,9.24663E0,3.827722E1,6.4553256E0,1.4836472E0,2.2977254E0,5.0904512E0,4.349211E-1,1.6748103E0,3.9408337E1,7.44283E1,2.012075E1,8.63773E-1,1.9816246E1,5.3440413E0,1.8613035E1,4.3036274E1,4.4408504E1,1.1224875E1,1.0170581E1,-1.3006614E0,4.3482566E0,1.7100004E1,7.574599E1,1.608507E2,-3.982464E-1,1.3521166E0,-8.3065075E-1,-1.2811388E0,2.9533756E0,5.84884E0,1.6195959E0,-7.0522815E-1,2.8558271E1,1.4288505E0,5.840322E0,1.8422726E1,3.1339438E0,-1.7620611E0],"split_indices":[11,11,10,11,10,7,7,10,10,6,10,7,10,7,7,11,11,10,10,4,5,7,10,10,7,2,6,7,7,5,7,11,10,11,10,11,11,11,7,2,7,0,2,7,3,7,11,6,7,10,2,6,5,5,5,7,2,7,7,2,0,7,7,0,0,0,0,0,0,0,0,0,0,0,0,0,0,0,0,0,0,0,0,0,0,0,0,0,0,0,0,0,0,0,0,0,0,0,0,0,0,0,0,0,0,0,0,0,0,0,0,0,0,0,0,0,0,0,0,0,0,0,0],"split_type":[0,0,0,0,0,0,0,0,0,0,0,0,0,0,0,0,0,0,0,0,0,0,0,0,0,0,0,0,0,0,0,0,0,0,0,0,0,0,0,0,0,0,0,0,0,0,0,0,0,0,0,0,0,0,0,0,0,0,0,0,0,0,0,0,0,0,0,0,0,0,0,0,0,0,0,0,0,0,0,0,0,0,0,0,0,0,0,0,0,0,0,0,0,0,0,0,0,0,0,0,0,0,0,0,0,0,0,0,0,0,0,0,0,0,0,0,0,0,0,0,0,0,0],"sum_hessian":[5.5471E4,5.4403E4,1.068E3,5.0925E4,3.478E3,4.38E2,6.3E2,4.2824E4,8.101E3,6.9E1,3.409E3,3.6E2,7.8E1,4.85E2,1.45E2,2.292E3,4.0532E4,1.692E3,6.409E3,6.1E1,8E0,4.69E2,2.94E3,1.19E2,2.41E2,2.2E1,5.6E1,1.34E2,3.51E2,1.8E1,1.27E2,1.871E3,4.21E2,3.5896E4,4.636E3,1.26E2,1.566E3,3.784E3,2.625E3,8E0,5.3E1,1E0,7E0,3.24E2,1.45E2,5.03E2,2.437E3,8.8E1,3.1E1,1.92E2,4.9E1,1.5E1,7E0,8E0,4.8E1,6.6E1,6.8E1,2.07E2,1.44E2,1.5E1,3E0,8.9E1,3.8E1,1.412E3,4.59E2,3E0,4.18E2,2.3506E4,1.239E4,8.79E2,3.757E3,4.7E1,7.9E1,6.82E2,8.84E2,2.812E3,9.72E2,2.365E3,2.6E2,1E0,7E0,5.1E1,2E0,3E0,4E0,3.22E2,2E0,1.17E2,2.8E1,4.28E2,7.5E1,1.797E3,6.4E2,6.6E1,2.2E1,2.5E1,6E0,4.5E1,1.47E2,2.9E1,2E1,9E0,6E0,2E0,5E0,6E0,2E0,4.3E1,5E0,5.6E1,1E1,3.1E1,3.7E1,1.36E2,7.1E1,6.6E1,7.8E1,1.4E1,1E0,5.2E1,3.7E1,2.1E1,1.7E1],"tree_param":{"num_deleted":"0","num_feature":"12","num_nodes":"123","size_leaf_vector":"1"}},{"base_weights":[7.154258E-2,-5.4246583E0,2.755622E2,-9.384743E0,5.2618904E1,2.5708344E2,2.2307756E3,-1.1876276E1,9.536973E0,3.2040623E1,1.0265621E2,2.0284113E2,6.0009564E2,-7.278023E0,3.1909812E3,-1.3063133E1,-4.165664E0,1.5851576E1,-9.6037334E-1,2.8335772E1,1.1390916E2,1.6782833E1,1.2453091E2,4.426785E2,1.2813441E2,2.0773979E2,1.0995557E3,-3.8326395E0,2.0698915E0,3.8059757E1,3.4690796E3,-1.3854519E1,-1.0799222E1,-6.276991E0,1.249604E0,9.171019E-1,2.4715096E1,-2.0077915E0,2.7451403E1,1.6538429E0,3.7173412E1,5.089246E2,8.083812E1,-6.4903097E0,2.6167908E1,1.5830748E2,4.30557E1,3.9444756E1,6.595285E2,8.152942E1,2.9418365E2,5.954862E1,3.3773767E2,8.3727155E2,2.2871729E3,4.4264946E1,1.904388E2,-6.871731E-1,-1.1625785E0,-5.168591E-1,-7.993842E-1,-3.0929534E-2,-3.8555863E-1,2.9695353E-1,-4.0699673E-1,5.9089357E-1,-3.8696665E-1,3.173895E0,9.7508574E-1,-3.5653138E-1,1.2211925E-1,9.7764015E0,9.1220313E-1,5.183228E-1,-5.655666E-1,2.3472092E0,5.8528167E-1,9.3337036E1,2.4136806E0,4.6662402E-1,7.5363503E0,8.272384E-2,-1.5517484E0,2.636144E0,6.9677943E-1,9.224444E0,4.23917E0,5.306819E0,1.344646E0,-5.507062E-2,9.8315E0,2.6644545E1,5.1056072E1,5.585136E0,8.7622976E-1,-4.250197E-1,1.6576622E1,8.810501E0,-5.023183E-1,2.167441E1,3.8032124E0,3.5326347E1,1.9416847E2,1.4017664E1,1.2299097E2],"categories":[],"categories_nodes":[],"categories_segments":[],"categories_sizes":[],"default_left":[0,0,0,0,0,0,0,0,0,0,0,0,0,0,0,0,0,0,0,0,0,0,0,0,0,0,0,0,0,0,0,0,0,0,0,0,0,0,0,0,0,0,0,0,0,0,0,0,0,0,0,0,0,0,0,0,0,0,0,0,0,0,0,0,0,0,0,0,0,0,0,0,0,0,0,0,0,0,0,0,0,0,0,0,0,0,0,0,0,0,0,0,0,0,0,0,0,0,0,0,0,0,0,0,0],"id":10,"left_children":[1,3,5,7,9,11,13,15,17,19,21,23,25,27,29,31,33,35,37,39,41,43,45,47,49,51,53,-1,-1,-1,55,57,59,61,63,65,67,69,71,73,75,77,79,81,83,85,87,89,91,93,95,97,99,101,103,-1,-1,-1,-1,-1,-1,-1,-1,-1,-1,-1,-1,-1,-1,-1,-1,-1,-1,-1,-1,-1,-1,-1,-1,-1,-1,-1,-1,-1,-1,-1,-1,-1,-1,-1,-1,-1,-1,-1,-1,-1,-1,-1,-1,-1,-1,-1,-1,-1,-1],"loss_changes":[8.375681E7,1.2466583E7,3.851904E7,2.393665E6,3.563528E6,1.984228E7,2.151314E7,4.10514E5,3.916363E5,7.417035E5,1.893271E6,1.6570684E7,2.8382628E7,1.668076E4,2.089392E6,6.9507E4,6.844818E4,4.882977E5,6.612012E4,5.543166E5,1.3435979E6,4.5164387E4,2.205754E6,1.921106E7,5.462772E6,1.578845E6,1.8020576E7,0E0,0E0,0E0,1.894304E6,2.97415E4,2.3987375E4,3.4947297E4,7.402198E4,1.2983893E5,4.665895E5,4.8849715E4,1.1868834E5,6.631213E4,4.3890175E5,4.9137205E6,4.9334088E5,1.2046006E4,4.701511E4,1.077739E6,2.3878125E5,4.9733075E5,6.004012E6,1.069879E6,1.755073E6,3.265322E5,1.069463E6,1.8762392E7,3.121556E6,0E0,0E0,0E0,0E0,0E0,0E0,0E0,0E0,0E0,0E0,0E0,0E0,0E0,0E0,0E0,0E0,0E0,0E0,0E0,0E0,0E0,0E0,0E0,0E0,0E0,0E0,0E0,0E0,0E0,0E0,0E0,0E0,0E0,0E0,0E0,0E0,0E0,0E0,0E0,0E0,0E0,0E0,0E0,0E0,0E0,0E0,0E0,0E0,0E0,0E0],"parents":[2147483647,0,0,1,1,2,2,3,3,4,4,5,5,6,6,7,7,8,8,9,9,10,10,11,11,12,12,13,13,14,14,15,15,16,16,17,17,18,18,19,19,20,20,21,21,22,22,23,23,24,24,25,25,26,26,30,30,31,31,32,32,33,33,34,34,35,35,36,36,37,37,38,38,39,39,40,40,41,41,42,42,43,43,44,44,45,45,46,46,47,47,48,48,49,49,50,50,51,51,52,52,53,53,54,54],"right_children":[2,4,6,8,10,12,14,16,18,20,22,24,26,28,30,32,34,36,38,40,42,44,46,48,50,52,54,-1,-1,-1,56,58,60,62,64,66,68,70,72,74,76,78,80,82,84,86,88,90,92,94,96,98,100,102,104,-1,-1,-1,-1,-1,-1,-1,-1,-1,-1,-1,-1,-1,-1,-1,-1,-1,-1,-1,-1,-1,-1,-1,-1,-1,-1,-1,-1,-1,-1,-1,-1,-1,-1,-1,-1,-1,-1,-1,-1,-1,-1,-1,-1,-1,-1,-1,-1,-1,-1],"split_conditions":[1.0689706E5,1.740302E4,-3.5E1,5.53043E3,4.4416363E4,-4.7E1,2.60456E5,1.71416E3,1.474796E4,1.8057358E5,8.950408E-1,-1.37E2,2.60456E5,9.397872E-1,9.800942E-1,8.0335E2,8.5333085E-1,7.719842E-1,1.8057358E5,8.404675E-1,2.1862341E2,6.2336934E-1,1.014231E0,9.2621565E-1,-6.3E1,9.906797E-1,1.4805211E5,-3.8326395E0,2.0698915E0,3.8059757E1,7E0,9.308528E-1,9.800942E-1,-1.57E2,1.0064604E0,-1.28E2,-1.43E2,9.060325E-1,1.3880568E2,3.9884434E4,1.0184118E0,1E0,9.6952075E-1,4.681214E1,-1.37E2,-6.3E1,5.7646152E4,9.060325E-1,-1.47E2,-8.4E1,9.534016E-1,-4.3E1,1.0101565E0,1.8057358E5,9.6952075E-1,4.4264946E1,1.904388E2,-6.871731E-1,-1.1625785E0,-5.168591E-1,-7.993842E-1,-3.0929534E-2,-3.8555863E-1,2.9695353E-1,-4.0699673E-1,5.9089357E-1,-3.8696665E-1,3.173895E0,9.7508574E-1,-3.5653138E-1,1.2211925E-1,9.7764015E0,9.1220313E-1,5.183228E-1,-5.655666E-1,2.3472092E0,5.8528167E-1,9.3337036E1,2.4136806E0,4.6662402E-1,7.5363503E0,8.272384E-2,-1.5517484E0,2.636144E0,6.9677943E-1,9.224444E0,4.23917E0,5.306819E0,1.344646E0,-5.507062E-2,9.8315E0,2.6644545E1,5.1056072E1,5.585136E0,8.7622976E-1,-4.250197E-1,1.6576622E1,8.810501E0,-5.023183E-1,2.167441E1,3.8032124E0,3.5326347E1,1.9416847E2,1.4017664E1,1.2299097E2],"split_indices":[11,11,7,11,11,7,11,11,11,6,0,7,11,0,0,11,0,0,6,0,1,0,0,0,7,0,6,0,0,0,3,0,0,7,0,7,7,0,1,11,0,8,0,2,7,7,11,0,7,7,0,7,0,5,0,0,0,0,0,0,0,0,0,0,0,0,0,0,0,0,0,0,0,0,0,0,0,0,0,0,0,0,0,0,0,0,0,0,0,0,0,0,0,0,0,0,0,0,0,0,0,0,0,0,0],"split_type":[0,0,0,0,0,0,0,0,0,0,0,0,0,0,0,0,0,0,0,0,0,0,0,0,0,0,0,0,0,0,0,0,0,0,0,0,0,0,0,0,0,0,0,0,0,0,0,0,0,0,0,0,0,0,0,0,0,0,0,0,0,0,0,0,0,0,0,0,0,0,0,0,0,0,0,0,0,0,0,0,0,0,0,0,0,0,0,0,0,0,0,0,0,0,0,0,0,0,0,0,0,0,0,0,0],"sum_hessian":[5.5314E4,5.4233E4,1.081E3,5.077E4,3.463E3,1.072E3,9E0,4.4863E4,5.907E3,2.455E3,1.008E3,9.27E2,1.45E2,3E0,6E0,3.8878E4,5.985E3,3.688E3,2.219E3,2.35E3,1.05E2,2.05E2,8.03E2,2.19E2,7.08E2,8.2E1,6.3E1,1E0,2E0,1E0,5E0,2.8804E4,1.0074E4,4.306E3,1.679E3,1.374E3,2.314E3,2.141E3,7.8E1,5.85E2,1.765E3,7E0,9.8E1,5.9E1,1.46E2,5.67E2,2.36E2,7.7E1,1.42E2,5.54E2,1.54E2,3.9E1,4.3E1,5.3E1,1E1,1E0,4E0,2.847E4,3.34E2,9.253E3,8.21E2,8.71E2,3.435E3,1.12E3,5.59E2,6.08E2,7.66E2,2.73E2,2.041E3,9.95E2,1.146E3,3E0,7.5E1,3.5E2,2.35E2,1.275E3,4.9E2,1E0,6E0,4.9E1,4.9E1,4.5E1,1.4E1,4.5E1,1.01E2,4.17E2,1.5E2,4.7E1,1.89E2,6.2E1,1.5E1,1.07E2,3.5E1,3.76E2,1.78E2,1.7E1,1.37E2,1.4E1,2.5E1,3.1E1,1.2E1,5.2E1,1E0,1E0,9E0],"tree_param":{"num_deleted":"0","num_feature":"12","num_nodes":"105","size_leaf_vector":"1"}},{"base_weights":[-1.7160612E-1,-5.1711826E0,2.5440286E2,-8.476788E0,5.6674015E1,5.1557196E2,6.435723E1,-1.12803335E1,1.0478777E1,8.496304E2,3.8966187E1,2.6840475E2,7.0501544E2,1.2866959E2,3.0374794E1,1.693297E0,-1.20757065E1,7.915505E1,1.3569266E0,6.5750775E2,1.6456759E3,1.4756165E2,2.4137089E1,5.050657E2,1.4712209E2,4.062383E2,9.394609E2,7.31205E0,1.8929686E2,5.2315773E1,8.066209E0,-7.358572E0,5.7400124E1,-1.3033171E1,-6.304371E0,2.340747E1,1.0862885E2,2.9320324E1,-1.5092084E0,1.218864E3,5.215622E2,4.0220477E2,2.061702E3,3.5328083E1,1.8314896E2,4.7646088E1,1.7882755E1,1.9114855E1,6.601877E2,4.7290466E1,1.9370227E2,3.508378E2,1.1950406E3,1.4973734E2,1.0253379E3,-3.4998598E0,4.863063E1,1.681184E2,6.4132227E2,4.329037E1,2.680268E2,3.8902686E0,1.0884648E2,-5.521467E-1,5.926724E-1,1.827011E0,6.583179E0,-4.6143556E-1,-6.62961E-1,1.0345377E0,-4.0857205E-1,4.641531E0,9.1878766E-1,1.1637371E1,4.590046E0,8.1177884E-1,1.8500636E0,-2.5805327E-1,1.1098397E-1,2.2779856E1,8.691791E1,4.030253E1,1.3730525E1,3.789265E1,1.551885E0,3.7581097E1,1.1865625E2,-6.326064E-1,3.8948803E0,6.5520945E0,1.2192805E1,1.5229161E0,3.0483394E0,-7.179506E-2,1.180489E0,-5.6864514E0,1.4080841E1,2.4107952E1,6.2377377E1,1.1482714E0,3.5840123E0,3.1103933E0,1.2652028E1,9.207713E0,2.1998281E1,5.749881E0,9.8816185E1,-4.5053835E0,2.622614E1,5.645292E1,1.4389554E1,9.803091E-1,-1.2128468E0,1.0728829E0,3.486239E0,1.11838875E1,2.0730639E0,8.716187E0,5.2510647E1,1.7109585E0,6.3236103E0,-1.1293241E0,1.8433115E1,-4.5833674E-1,1.08099E0,2.641268E0,1.2524859E1],"categories":[],"categories_nodes":[],"categories_segments":[],"categories_sizes":[],"default_left":[0,0,0,0,0,0,0,0,0,0,0,0,0,0,0,0,0,0,0,0,0,0,0,0,0,0,0,0,0,0,0,0,0,0,0,0,0,0,0,0,0,0,0,0,0,0,0,0,0,0,0,0,0,0,0,0,0,0,0,0,0,0,0,0,0,0,0,0,0,0,0,0,0,0,0,0,0,0,0,0,0,0,0,0,0,0,0,0,0,0,0,0,0,0,0,0,0,0,0,0,0,0,0,0,0,0,0,0,0,0,0,0,0,0,0,0,0,0,0,0,0,0,0,0,0,0,0],"id":11,"left_children":[1,3,5,7,9,11,13,15,17,19,21,23,25,27,29,31,33,35,37,39,41,43,45,47,49,51,53,55,57,59,61,63,65,67,69,71,73,75,77,79,81,83,85,87,89,91,93,95,97,99,101,103,105,107,109,111,113,115,117,119,121,123,125,-1,-1,-1,-1,-1,-1,-1,-1,-1,-1,-1,-1,-1,-1,-1,-1,-1,-1,-1,-1,-1,-1,-1,-1,-1,-1,-1,-1,-1,-1,-1,-1,-1,-1,-1,-1,-1,-1,-1,-1,-1,-1,-1,-1,-1,-1,-1,-1,-1,-1,-1,-1,-1,-1,-1,-1,-1,-1,-1,-1,-1,-1,-1,-1],"loss_changes":[7.031011E7,1.1076404E7,5.277744E7,2.7332515E6,3.856707E7,2.0788024E7,1.3445395E6,4.62347E5,4.1514078E6,8.094256E6,4.328341E6,5.551456E6,1.7340224E7,1.5657792E6,1.9781422E5,1.3059278E6,2.331975E5,1.2741405E6,4.689836E5,3.17998E6,4.861256E6,1.2836215E6,3.4732225E5,4.962572E6,6.00013E5,4.518842E6,9.408984E6,3.2334955E4,1.251577E6,3.8556025E5,8.458874E4,1.5783772E5,5.559735E5,3.10165E4,3.0303334E5,9.260994E4,1.0396725E6,5.407303E4,7.229242E4,2.776624E6,2.729355E6,5.0449756E5,1.480224E6,1.6234264E5,7.43046E5,1.1193275E5,2.0714888E5,6.248482E5,4.626826E6,2.3864969E4,6.7869475E5,1.508585E6,5.679462E6,1.3956198E6,9.390384E6,2.829319E4,7.1017305E3,9.5479275E5,9.6263075E5,1.4432038E5,2.4229488E5,4.5339613E4,5.0250844E4,0E0,0E0,0E0,0E0,0E0,0E0,0E0,0E0,0E0,0E0,0E0,0E0,0E0,0E0,0E0,0E0,0E0,0E0,0E0,0E0,0E0,0E0,0E0,0E0,0E0,0E0,0E0,0E0,0E0,0E0,0E0,0E0,0E0,0E0,0E0,0E0,0E0,0E0,0E0,0E0,0E0,0E0,0E0,0E0,0E0,0E0,0E0,0E0,0E0,0E0,0E0,0E0,0E0,0E0,0E0,0E0,0E0,0E0,0E0,0E0,0E0,0E0,0E0,0E0],"parents":[2147483647,0,0,1,1,2,2,3,3,4,4,5,5,6,6,7,7,8,8,9,9,10,10,11,11,12,12,13,13,14,14,15,15,16,16,17,17,18,18,19,19,20,20,21,21,22,22,23,23,24,24,25,25,26,26,27,27,28,28,29,29,30,30,31,31,32,32,33,33,34,34,35,35,36,36,37,37,38,38,39,39,40,40,41,41,42,42,43,43,44,44,45,45,46,46,47,47,48,48,49,49,50,50,51,51,52,52,53,53,54,54,55,55,56,56,57,57,58,58,59,59,60,60,61,61,62,62],"right_children":[2,4,6,8,10,12,14,16,18,20,22,24,26,28,30,32,34,36,38,40,42,44,46,48,50,52,54,56,58,60,62,64,66,68,70,72,74,76,78,80,82,84,86,88,90,92,94,96,98,100,102,104,106,108,110,112,114,116,118,120,122,124,126,-1,-1,-1,-1,-1,-1,-1,-1,-1,-1,-1,-1,-1,-1,-1,-1,-1,-1,-1,-1,-1,-1,-1,-1,-1,-1,-1,-1,-1,-1,-1,-1,-1,-1,-1,-1,-1,-1,-1,-1,-1,-1,-1,-1,-1,-1,-1,-1,-1,-1,-1,-1,-1,-1,-1,-1,-1,-1,-1,-1,-1,-1,-1,-1],"split_conditions":[1.0689706E5,2.6114E4,3.3E2,5.53043E3,6.9E1,9.800942E-1,3E0,3.3E1,1.11E2,1.5374872E5,2.12E2,2.33E2,3E0,9.6139747E-1,3E0,9.99474E2,1.66897E3,8.093668E-1,1.54E2,1.5E1,9.278085E4,9.308528E-1,3.32E2,1.1E1,2E0,1.8057358E5,8.712381E4,1.2E1,1.8057358E5,1.8057358E5,3E1,4.3421185E-1,9.308528E-1,5.7E1,8.7E1,3.1E1,4.2E1,9.44075E3,8.950408E-1,9.6139747E-1,2E0,5E0,2E0,8.463459E-1,1E1,9.732158E-1,8.155864E-1,1.2003613E5,1.2211653E5,1.2211653E5,1.0412923E5,1.0344891E5,1.0064604E0,9.0889914E4,1.2E1,2E0,1.3E1,1.014231E0,1.1E1,2.9E1,1.3E1,1.2E1,1.0064604E0,-5.521467E-1,5.926724E-1,1.827011E0,6.583179E0,-4.6143556E-1,-6.62961E-1,1.0345377E0,-4.0857205E-1,4.641531E0,9.1878766E-1,1.1637371E1,4.590046E0,8.1177884E-1,1.8500636E0,-2.5805327E-1,1.1098397E-1,2.2779856E1,8.691791E1,4.030253E1,1.3730525E1,3.789265E1,1.551885E0,3.7581097E1,1.1865625E2,-6.326064E-1,3.8948803E0,6.5520945E0,1.2192805E1,1.5229161E0,3.0483394E0,-7.179506E-2,1.180489E0,-5.6864514E0,1.4080841E1,2.4107952E1,6.2377377E1,1.1482714E0,3.5840123E0,3.1103933E0,1.2652028E1,9.207713E0,2.1998281E1,5.749881E0,9.8816185E1,-4.5053835E0,2.622614E1,5.645292E1,1.4389554E1,9.803091E-1,-1.2128468E0,1.0728829E0,3.486239E0,1.11838875E1,2.0730639E0,8.716187E0,5.2510647E1,1.7109585E0,6.3236103E0,-1.1293241E0,1.8433115E1,-4.5833674E-1,1.08099E0,2.641268E0,1.2524859E1],"split_indices":[11,11,10,11,10,0,8,10,10,6,10,10,9,0,9,11,11,0,10,10,5,0,10,9,9,6,6,9,5,6,4,0,0,10,10,10,10,11,0,0,9,3,9,0,9,0,0,6,6,6,5,5,0,5,9,9,4,0,4,4,3,9,0,0,0,0,0,0,0,0,0,0,0,0,0,0,0,0,0,0,0,0,0,0,0,0,0,0,0,0,0,0,0,0,0,0,0,0,0,0,0,0,0,0,0,0,0,0,0,0,0,0,0,0,0,0,0,0,0,0,0,0,0,0,0,0,0],"split_type":[0,0,0,0,0,0,0,0,0,0,0,0,0,0,0,0,0,0,0,0,0,0,0,0,0,0,0,0,0,0,0,0,0,0,0,0,0,0,0,0,0,0,0,0,0,0,0,0,0,0,0,0,0,0,0,0,0,0,0,0,0,0,0,0,0,0,0,0,0,0,0,0,0,0,0,0,0,0,0,0,0,0,0,0,0,0,0,0,0,0,0,0,0,0,0,0,0,0,0,0,0,0,0,0,0,0,0,0,0,0,0,0,0,0,0,0,0,0,0,0,0,0,0,0,0,0,0],"sum_hessian":[5.524E4,5.4177E4,1.063E3,5.1429E4,2.748E3,4.47E2,6.16E2,4.4803E4,6.626E3,5.9E1,2.689E3,1.95E2,2.52E2,2.12E2,4.04E2,2.588E3,4.2215E4,7.76E2,5.85E3,4.9E1,1E1,3.22E2,2.367E3,6.5E1,1.3E2,1.12E2,1.4E2,7.1E1,1.41E2,2.03E2,2.01E2,2.227E3,3.61E2,3.6207E4,6.008E3,2.69E2,5.07E2,5.43E2,5.307E3,8E0,4.1E1,3E0,7E0,7.8E1,2.44E2,4.96E2,1.871E3,1.6E1,4.9E1,4.2E1,8.8E1,1.06E2,6E0,1.4E1,1.26E2,5.7E1,1.4E1,1.36E2,5E0,1.96E2,7E0,1.94E2,7E0,1.869E3,3.58E2,2.83E2,7.8E1,2.033E3,3.4174E4,3.88E2,5.62E3,1.7E1,2.52E2,5.9E1,4.48E2,2.02E2,3.41E2,2.681E3,2.626E3,4E0,4E0,1.8E1,2.3E1,1E0,2E0,2E0,5E0,3.7E1,4.1E1,1.33E2,1.11E2,2.18E2,2.78E2,4.28E2,1.443E3,1.1E1,5E0,3.9E1,1E1,2.2E1,2E1,2.8E1,6E1,3.8E1,6.8E1,3E0,3E0,9E0,5E0,1.1E2,1.6E1,2.7E1,3E1,7E0,7E0,9.4E1,4.2E1,3E0,2E0,1.78E2,1.8E1,2E0,5E0,1.12E2,8.2E1,6E0,1E0],"tree_param":{"num_deleted":"0","num_feature":"12","num_nodes":"127","size_leaf_vector":"1"}},{"base_weights":[4.8091922E-2,-8.535345E0,5.201076E1,-1.0657343E1,7.3802137E0,8.29993E1,3.3944132E0,-1.1926669E1,-7.1975985E0,2.8369164E1,-1.0582148E0,4.4861202E1,1.144353E2,2.0581509E1,-6.1799836E0,-1.2880453E1,-1.1179494E1,1.9876733E0,-9.554567E0,1.954415E2,2.5709343E1,9.434055E0,-4.088071E0,8.5575874E1,2.0501247E1,8.360141E2,1.12190895E2,1.4576645E2,1.7640142E1,-6.780921E0,4.722923E1,-1.2459765E1,-1.33058195E1,-8.006124E0,-1.1758713E1,1.5159222E1,-2.9470795E-1,-7.997404E0,-1.1389055E1,1.3170395E2,4.3128567E1,2.02818E1,1.0259586E2,4.153549E0,2.177258E1,-2.303725E-1,-7.497714E0,7.04378E1,2.2712605E2,5.853528E0,4.2911995E1,4.273507E1,1.0933179E3,9.5117714E1,1.7463345E2,1.8929287E1,5.442626E2,1.4863459E1,6.501539E1,2.1241343E0,-9.3249445E0,1.5575327E2,-1.3798871E1,-6.478708E-1,-5.949058E-1,-6.568863E-1,-6.884737E-1,-4.7711593E-1,-2.6318613E-1,-5.451515E-1,-6.3657683E-1,4.840703E-1,2.3005176E0,-1.779878E-1,1.6494529E-1,-4.4011804E-1,-1.0252658E-1,-5.933285E-1,-4.8784086E-1,-7.326901E-1,1.1864595E1,6.0083055E0,9.379837E-1,2.2637363E1,1.6893561E0,1.5824604E0,1.668366E-1,6.045884E0,1.0474187E0,-1.24194816E-1,6.0177E-1,-3.0819616E-1,-5.185733E-1,1.561431E1,3.2138321E0,8.77833E0,7.287952E1,6.4635E-1,-6.219966E-1,1.8294445E0,6.368524E0,4.458324E0,-1.2531934E0,1.4257224E1,5.9896187E1,7.9876304E0,4.0630155E0,6.292457E0,1.603922E1,-5.7956684E-1,2.0121157E0,-2.498442E-1,5.475938E1,1.3762105E0,3.561419E-1,3.0443655E1,1.2503712E0,6.0836377E0,6.435405E-2,-3.152065E-1,-5.8623904E-1,3.1973476E0,1.4372406E1,-3.490803E-1,-7.8215927E-1],"categories":[],"categories_nodes":[],"categories_segments":[],"categories_sizes":[],"default_left":[0,0,0,0,0,0,0,0,0,0,0,0,0,0,0,0,0,0,0,0,0,0,0,0,0,0,0,0,0,0,0,0,0,0,0,0,0,0,0,0,0,0,0,0,0,0,0,0,0,0,0,0,0,0,0,0,0,0,0,0,0,0,0,0,0,0,0,0,0,0,0,0,0,0,0,0,0,0,0,0,0,0,0,0,0,0,0,0,0,0,0,0,0,0,0,0,0,0,0,0,0,0,0,0,0,0,0,0,0,0,0,0,0,0,0,0,0,0,0,0,0,0,0,0,0],"id":12,"left_children":[1,3,5,7,9,11,13,15,17,19,21,23,25,27,29,31,33,35,37,39,41,43,45,47,49,51,53,55,57,59,61,63,65,67,69,71,73,75,77,79,-1,81,83,85,87,89,91,93,95,97,99,101,103,105,107,109,111,113,115,117,119,121,123,-1,-1,-1,-1,-1,-1,-1,-1,-1,-1,-1,-1,-1,-1,-1,-1,-1,-1,-1,-1,-1,-1,-1,-1,-1,-1,-1,-1,-1,-1,-1,-1,-1,-1,-1,-1,-1,-1,-1,-1,-1,-1,-1,-1,-1,-1,-1,-1,-1,-1,-1,-1,-1,-1,-1,-1,-1,-1,-1,-1,-1,-1],"loss_changes":[2.4722346E7,1.6066835E6,1.1838186E7,1.842495E5,9.913356E5,5.748434E6,5.036688E5,2.17395E4,2.4398612E5,7.082094E5,1.2697631E5,2.1504675E6,4.165524E6,4.00624E5,6.342017E4,2.24675E3,3.156875E4,6.920833E4,2.5526938E4,9.494264E5,6.5767825E5,5.8222086E4,4.0760582E4,1.723954E6,4.4586288E5,1.5861865E6,2.779748E6,1.2533004E6,1.3991944E5,4.408314E4,1.4785555E5,1.74475E3,3.40375E2,1.1164422E4,1.19855E4,5.7013477E4,2.3044252E4,2.3217875E4,3.0915E3,3.7436403E5,0E0,2.2245562E5,2.4904245E6,1.3998603E4,1.9366836E4,4.0247855E4,6.241336E3,1.0751255E6,4.692577E6,1.06655586E5,2.82119E5,1.1678855E4,1.65656E5,1.833896E6,3.966618E6,1.34762E4,1.8210774E6,9.908005E4,1.2685335E6,4.317309E4,1.0894516E4,7.834191E4,7.938306E1,0E0,0E0,0E0,0E0,0E0,0E0,0E0,0E0,0E0,0E0,0E0,0E0,0E0,0E0,0E0,0E0,0E0,0E0,0E0,0E0,0E0,0E0,0E0,0E0,0E0,0E0,0E0,0E0,0E0,0E0,0E0,0E0,0E0,0E0,0E0,0E0,0E0,0E0,0E0,0E0,0E0,0E0,0E0,0E0,0E0,0E0,0E0,0E0,0E0,0E0,0E0,0E0,0E0,0E0,0E0,0E0,0E0,0E0,0E0,0E0,0E0,0E0],"parents":[2147483647,0,0,1,1,2,2,3,3,4,4,5,5,6,6,7,7,8,8,9,9,10,10,11,11,12,12,13,13,14,14,15,15,16,16,17,17,18,18,19,19,20,20,21,21,22,22,23,23,24,24,25,25,26,26,27,27,28,28,29,29,30,30,31,31,32,32,33,33,34,34,35,35,36,36,37,37,38,38,39,39,41,41,42,42,43,43,44,44,45,45,46,46,47,47,48,48,49,49,50,50,51,51,52,52,53,53,54,54,55,55,56,56,57,57,58,58,59,59,60,60,61,61,62,62],"right_children":[2,4,6,8,10,12,14,16,18,20,22,24,26,28,30,32,34,36,38,40,42,44,46,48,50,52,54,56,58,60,62,64,66,68,70,72,74,76,78,80,-1,82,84,86,88,90,92,94,96,98,100,102,104,106,108,110,112,114,116,118,120,122,124,-1,-1,-1,-1,-1,-1,-1,-1,-1,-1,-1,-1,-1,-1,-1,-1,-1,-1,-1,-1,-1,-1,-1,-1,-1,-1,-1,-1,-1,-1,-1,-1,-1,-1,-1,-1,-1,-1,-1,-1,-1,-1,-1,-1,-1,-1,-1,-1,-1,-1,-1,-1,-1,-1,-1,-1,-1,-1,-1,-1,-1,-1],"split_conditions":[9.355298E-1,7.786914E-1,1.0184118E0,4.2142874E-1,-1.1E2,9.7666836E-1,1.0479295E0,8.2562804E-2,-1.36E2,2E0,-8.5E1,-8.7E1,1.0966581E2,1.7934166E2,3.8147712E3,-1.18E2,-1.53E2,1.8874687E2,-7E1,9.2621565E-1,1.5374872E5,8.950408E-1,-6.1E1,1.4805211E5,9.6139747E-1,-1.49E2,-4.5E1,6E0,1.8057358E5,1.0661138E0,-1.61E2,1.8472023E-2,-6.9E1,2.433236E-1,-8.5E1,7.0228946E-1,5.941547E-1,7.370282E-1,6.9462085E-1,9.562484E4,4.3128567E1,8.971426E1,1.1E1,2E0,6.43305E1,9.165042E-1,-4.1E1,1.26465614E2,3E1,-4.5E1,2.9E1,1.014231E0,9.8354757E-1,-1.36E2,1.3139461E5,1.3565802E2,1.3E1,-8.7E1,8.712381E4,-1.72E2,-8.7E1,-1.62E2,1.0661138E0,-6.478708E-1,-5.949058E-1,-6.568863E-1,-6.884737E-1,-4.7711593E-1,-2.6318613E-1,-5.451515E-1,-6.3657683E-1,4.840703E-1,2.3005176E0,-1.779878E-1,1.6494529E-1,-4.4011804E-1,-1.0252658E-1,-5.933285E-1,-4.8784086E-1,-7.326901E-1,1.1864595E1,6.0083055E0,9.379837E-1,2.2637363E1,1.6893561E0,1.5824604E0,1.668366E-1,6.045884E0,1.0474187E0,-1.24194816E-1,6.0177E-1,-3.0819616E-1,-5.185733E-1,1.561431E1,3.2138321E0,8.77833E0,7.287952E1,6.4635E-1,-6.219966E-1,1.8294445E0,6.368524E0,4.458324E0,-1.2531934E0,1.4257224E1,5.9896187E1,7.9876304E0,4.0630155E0,6.292457E0,1.603922E1,-5.7956684E-1,2.0121157E0,-2.498442E-1,5.475938E1,1.3762105E0,3.561419E-1,3.0443655E1,1.2503712E0,6.0836377E0,6.435405E-2,-3.152065E-1,-5.8623904E-1,3.1973476E0,1.4372406E1,-3.490803E-1,-7.8215927E-1],"split_indices":[0,0,0,0,7,0,0,0,7,4,7,7,1,1,1,7,7,1,7,0,6,0,7,5,0,7,7,8,6,0,7,0,7,0,7,0,0,0,0,5,0,1,3,3,1,0,7,1,4,7,4,0,0,7,5,1,3,7,5,7,7,7,0,0,0,0,0,0,0,0,0,0,0,0,0,0,0,0,0,0,0,0,0,0,0,0,0,0,0,0,0,0,0,0,0,0,0,0,0,0,0,0,0,0,0,0,0,0,0,0,0,0,0,0,0,0,0,0,0,0,0,0,0,0,0],"split_type":[0,0,0,0,0,0,0,0,0,0,0,0,0,0,0,0,0,0,0,0,0,0,0,0,0,0,0,0,0,0,0,0,0,0,0,0,0,0,0,0,0,0,0,0,0,0,0,0,0,0,0,0,0,0,0,0,0,0,0,0,0,0,0,0,0,0,0,0,0,0,0,0,0,0,0,0,0,0,0,0,0,0,0,0,0,0,0,0,0,0,0,0,0,0,0,0,0,0,0,0,0,0,0,0,0,0,0,0,0,0,0,0,0,0,0,0,0,0,0,0,0,0,0,0,0],"sum_hessian":[5.5427E4,4.757E4,7.857E3,4.1974E4,5.596E3,4.798E3,3.059E3,3.0706E4,1.1268E4,1.604E3,3.992E3,2.169E3,2.629E3,1.094E3,1.965E3,1.3481E4,1.7225E4,2.301E3,8.967E3,2.4E1,1.58E3,8.94E2,3.098E3,8.11E2,1.358E3,7E0,2.622E3,2.4E1,1.07E3,1.944E3,2.1E1,6.793E3,6.688E3,2.661E3,1.4564E4,3.39E2,1.962E3,4.853E3,4.114E3,2.3E1,1E0,1.477E3,1.03E2,6.27E2,2.67E2,1.454E3,1.644E3,7.34E2,7.7E1,8.22E2,5.36E2,2E0,5E0,2.061E3,5.61E2,1.9E1,5E0,1.012E3,5.8E1,4.32E2,1.512E3,7E0,1.4E1,3.59E3,3.203E3,4.93E3,1.758E3,1.704E3,9.57E2,7.755E3,6.809E3,2.89E2,5E1,1.028E3,9.34E2,4.274E3,5.79E2,3.178E3,9.36E2,1E1,1.3E1,2.1E1,1.456E3,1.6E1,8.7E1,1.7E1,6.1E2,1E0,2.66E2,1.229E3,2.25E2,1.125E3,5.19E2,1.7E1,7.17E2,7.5E1,2E0,5.93E2,2.29E2,5E2,3.6E1,1E0,1E0,1E0,4E0,3.62E2,1.699E3,4.22E2,1.39E2,8E0,1.1E1,3E0,2E0,3.83E2,6.29E2,3E0,5.5E1,2E0,4.3E2,6.71E2,8.41E2,5E0,2E0,4E0,1E1],"tree_param":{"num_deleted":"0","num_feature":"12","num_nodes":"125","size_leaf_vector":"1"}},{"base_weights":[4.0044057E-1,-4.646861E0,2.5730963E2,-6.590498E0,9.826017E1,1.907491E2,6.0621765E2,-1.0328354E1,1.3524713E1,8.534451E1,2.484075E2,4.35255E2,1.040344E2,2.4613687E2,1.156101E3,-1.1329738E1,-3.8390214E0,2.5131094E0,2.1523294E1,2.9566177E1,1.08861374E2,3.8446283E2,5.702654E1,1.4923073E2,6.5133936E2,7.188698E1,2.3758783E2,6.0991356E1,3.6566028E2,7.963127E2,2.4612769E3,-1.2538522E1,-1.0228512E1,-2.762385E0,-1.1610939E1,9.55388E0,-5.765285E0,2.9643778E1,5.770765E-1,3.8807473E0,5.2080055E1,1.6264462E2,5.2376488E1,6.982122E1,6.4596893E2,-5.8141165E0,7.070004E1,1.7289476E1,3.159721E2,-4.5407734E1,7.3369116E2,9.959965E1,1.2821299E1,-1.888772E1,2.7972827E2,1.6613914E2,-3.3093307E1,4.5058557E2,6.3860363E1,4.5996448E2,1.1156252E3,1.0530132E3,2.919281E3,-6.2475884E-1,-1.6639065E0,-4.8987457E-1,-8.3549565E-1,-2.3876424E-1,3.1356427E-1,-6.5210325E-1,-3.537043E-1,-1.1443976E-1,1.1187557E0,-6.0064393E-1,-1.1021914E-1,9.783559E-1,2.3098E0,3.722168E-1,-2.7432278E-1,5.193139E-1,-7.7781516E-1,4.523526E0,7.51244E-1,1.0952131E1,4.533355E0,5.445514E0,1.5184166E0,6.384424E0,5.478894E-1,1.9242039E1,5.3371838E1,-8.5907334E-1,7.5347537E-1,4.027473E0,4.641407E-1,-5.57236E-1,9.819815E0,2.2072773E1,-1.3434014E0,-3.1070492E0,8.071974E-1,4.291028E1,1.0253158E1,4.4920654E0,2.6130772E1,2.2288291E0,-4.9715376E-1,1.4352363E0,-2.153076E0,6.757783E0,1.7411722E1,7.749304E-1,1.0765971E1,-5.732697E-1,-3.27314E0,2.4810598E1,5.2969937E0,1.3963359E1,4.619382E-1,1.4264971E0,3.012087E1,3.3202766E1,8.123748E1,8.406919E0,6.1609863E1,7.5254654E1,1.6551743E2],"categories":[],"categories_nodes":[],"categories_segments":[],"categories_sizes":[],"default_left":[0,0,0,0,0,0,0,0,0,0,0,0,0,0,0,0,0,0,0,0,0,0,0,0,0,0,0,0,0,0,0,0,0,0,0,0,0,0,0,0,0,0,0,0,0,0,0,0,0,0,0,0,0,0,0,0,0,0,0,0,0,0,0,0,0,0,0,0,0,0,0,0,0,0,0,0,0,0,0,0,0,0,0,0,0,0,0,0,0,0,0,0,0,0,0,0,0,0,0,0,0,0,0,0,0,0,0,0,0,0,0,0,0,0,0,0,0,0,0,0,0,0,0,0,0,0,0],"id":13,"left_children":[1,3,5,7,9,11,13,15,17,19,21,23,25,27,29,31,33,35,37,39,41,43,45,47,49,51,53,55,57,59,61,63,65,67,69,71,73,75,77,79,81,83,85,87,89,91,93,95,97,99,101,103,105,107,109,111,113,115,117,119,121,123,125,-1,-1,-1,-1,-1,-1,-1,-1,-1,-1,-1,-1,-1,-1,-1,-1,-1,-1,-1,-1,-1,-1,-1,-1,-1,-1,-1,-1,-1,-1,-1,-1,-1,-1,-1,-1,-1,-1,-1,-1,-1,-1,-1,-1,-1,-1,-1,-1,-1,-1,-1,-1,-1,-1,-1,-1,-1,-1,-1,-1,-1,-1,-1,-1],"loss_changes":[7.160616E7,1.0833001E7,2.4594176E7,3.9967445E6,1.925808E6,1.893074E7,3.3375848E7,2.9125E5,7.336291E5,1.2114445E6,2.035109E6,1.4365252E7,2.8251505E6,2.2791375E6,2.9502384E7,5.15645E4,5.0122906E4,2.0440675E5,8.206835E5,1.5940277E5,1.9691795E6,3.7398095E6,2.9625617E4,2.2385438E6,7.664644E6,8.7444675E5,1.388706E6,4.209955E5,1.585943E6,5.28646E6,5.955832E6,1.622225E4,5.661925E4,9.5786234E4,4.640992E3,2.877837E5,3.5835793E4,5.7902875E5,5.6212992E4,1.6599852E4,2.0775775E5,1.331917E6,3.9359375E5,7.353867E4,2.340635E6,1.9206567E3,1.6190156E4,2.9756872E5,1.947793E6,1.6452594E4,7.656804E6,1.4556142E6,1.2478017E5,2.3095383E4,1.042387E6,1.4483369E5,1.5351389E4,7.17954E5,1.7390788E5,1.7036685E6,5.12852E6,5.85598E5,5.4804E5,0E0,0E0,0E0,0E0,0E0,0E0,0E0,0E0,0E0,0E0,0E0,0E0,0E0,0E0,0E0,0E0,0E0,0E0,0E0,0E0,0E0,0E0,0E0,0E0,0E0,0E0,0E0,0E0,0E0,0E0,0E0,0E0,0E0,0E0,0E0,0E0,0E0,0E0,0E0,0E0,0E0,0E0,0E0,0E0,0E0,0E0,0E0,0E0,0E0,0E0,0E0,0E0,0E0,0E0,0E0,0E0,0E0,0E0,0E0,0E0,0E0,0E0,0E0,0E0],"parents":[2147483647,0,0,1,1,2,2,3,3,4,4,5,5,6,6,7,7,8,8,9,9,10,10,11,11,12,12,13,13,14,14,15,15,16,16,17,17,18,18,19,19,20,20,21,21,22,22,23,23,24,24,25,25,26,26,27,27,28,28,29,29,30,30,31,31,32,32,33,33,34,34,35,35,36,36,37,37,38,38,39,39,40,40,41,41,42,42,43,43,44,44,45,45,46,46,47,47,48,48,49,49,50,50,51,51,52,52,53,53,54,54,55,55,56,56,57,57,58,58,59,59,60,60,61,61,62,62],"right_children":[2,4,6,8,10,12,14,16,18,20,22,24,26,28,30,32,34,36,38,40,42,44,46,48,50,52,54,56,58,60,62,64,66,68,70,72,74,76,78,80,82,84,86,88,90,92,94,96,98,100,102,104,106,108,110,112,114,116,118,120,122,124,126,-1,-1,-1,-1,-1,-1,-1,-1,-1,-1,-1,-1,-1,-1,-1,-1,-1,-1,-1,-1,-1,-1,-1,-1,-1,-1,-1,-1,-1,-1,-1,-1,-1,-1,-1,-1,-1,-1,-1,-1,-1,-1,-1,-1,-1,-1,-1,-1,-1,-1,-1,-1,-1,-1,-1,-1,-1,-1,-1,-1,-1,-1,-1,-1],"split_conditions":[1.0689706E5,4.4416363E4,-4.8E1,5.53043E3,1.5374872E5,-1.37E2,2.60456E5,1.71416E3,8.716373E-1,9.397872E-1,9.9676245E-1,9.48748E-1,-6.3E1,9.906797E-1,6E0,2.9899387E2,5.4543555E3,-1.14E2,1.0232205E0,8.404675E-1,1.0000327E0,9.6952075E-1,1.8571225E2,7.151538E1,-1.68E2,-8.4E1,9.534016E-1,-4.2E1,1.0101565E0,7.238695E2,9.800942E-1,9.2621565E-1,9.573822E-1,4.273E3,-6.4E1,6.3761777E-1,6.877474E-1,1.740302E4,1.0661138E0,8.1794754E1,-1.14E2,-8.7E1,5.7646152E4,-8.9E1,4E0,1.7034015E2,2.7E1,2.60456E5,7.032346E2,1.5374872E5,1.0184118E0,-8.5E1,-7.5E1,-5.9E1,9.643502E4,9.6139747E-1,8.6075885E2,6E0,-4.5E1,8.712381E4,1.0000327E0,9.658021E-1,1E1,-6.2475884E-1,-1.6639065E0,-4.8987457E-1,-8.3549565E-1,-2.3876424E-1,3.1356427E-1,-6.5210325E-1,-3.537043E-1,-1.1443976E-1,1.1187557E0,-6.0064393E-1,-1.1021914E-1,9.783559E-1,2.3098E0,3.722168E-1,-2.7432278E-1,5.193139E-1,-7.7781516E-1,4.523526E0,7.51244E-1,1.0952131E1,4.533355E0,5.445514E0,1.5184166E0,6.384424E0,5.478894E-1,1.9242039E1,5.3371838E1,-8.5907334E-1,7.5347537E-1,4.027473E0,4.641407E-1,-5.57236E-1,9.819815E0,2.2072773E1,-1.3434014E0,-3.1070492E0,8.071974E-1,4.291028E1,1.0253158E1,4.4920654E0,2.6130772E1,2.2288291E0,-4.9715376E-1,1.4352363E0,-2.153076E0,6.757783E0,1.7411722E1,7.749304E-1,1.0765971E1,-5.732697E-1,-3.27314E0,2.4810598E1,5.2969937E0,1.3963359E1,4.619382E-1,1.4264971E0,3.012087E1,3.3202766E1,8.123748E1,8.406919E0,6.1609863E1,7.5254654E1,1.6551743E2],"split_indices":[11,11,7,11,6,7,11,11,0,0,0,0,7,0,8,11,11,7,0,0,0,0,2,2,7,7,0,7,0,2,0,0,0,11,7,0,0,11,0,2,7,7,11,7,8,2,3,11,2,6,0,7,7,7,6,0,2,8,7,6,0,0,3,0,0,0,0,0,0,0,0,0,0,0,0,0,0,0,0,0,0,0,0,0,0,0,0,0,0,0,0,0,0,0,0,0,0,0,0,0,0,0,0,0,0,0,0,0,0,0,0,0,0,0,0,0,0,0,0,0,0,0,0,0,0,0,0],"split_type":[0,0,0,0,0,0,0,0,0,0,0,0,0,0,0,0,0,0,0,0,0,0,0,0,0,0,0,0,0,0,0,0,0,0,0,0,0,0,0,0,0,0,0,0,0,0,0,0,0,0,0,0,0,0,0,0,0,0,0,0,0,0,0,0,0,0,0,0,0,0,0,0,0,0,0,0,0,0,0,0,0,0,0,0,0,0,0,0,0,0,0,0,0,0,0,0,0,0,0,0,0,0,0,0,0,0,0,0,0,0,0,0,0,0,0,0,0,0,0,0,0,0,0,0,0,0,0],"sum_hessian":[5.522E4,5.4157E4,1.063E3,5.3154E4,1.003E3,8.94E2,1.69E2,4.4825E4,8.329E3,9.25E2,7.8E1,2.33E2,6.61E2,1.03E2,6.6E1,3.8832E4,5.993E3,3.505E3,4.824E3,2.75E2,6.5E2,4.5E1,3.3E1,1.01E2,1.32E2,5.34E2,1.27E2,4.1E1,6.2E1,5.3E1,1.3E1,1.8507E4,2.0325E4,5.265E3,7.28E2,1.894E3,1.611E3,3.476E3,1.348E3,1.29E2,1.46E2,3.32E2,3.18E2,2.1E1,2.4E1,6E0,2.7E1,5.7E1,4.4E1,1.4E1,1.18E2,3.63E2,1.71E2,1.8E1,1.09E2,1.9E1,2.2E1,4.8E1,1.4E1,2.7E1,2.6E1,4E0,9E0,1.847E4,3.7E1,1.906E4,1.265E3,4.306E3,9.59E2,5.52E2,1.76E2,9.85E2,9.09E2,5.84E2,1.027E3,2.162E3,1.314E3,6.32E2,7.16E2,9.7E1,3.2E1,7.1E1,7.5E1,1.85E2,1.47E2,8.8E1,2.3E2,1E1,1.1E1,1.6E1,8E0,4E0,2E0,2.3E1,4E0,5E1,7E0,3.2E1,1.2E1,1.1E1,3E0,9.5E1,2.3E1,3.56E2,7E0,7.1E1,1E2,6E0,1.2E1,3.6E1,7.3E1,5E0,1.4E1,1.4E1,8E0,4.2E1,6E0,2E0,1.2E1,7E0,2E1,1.5E1,1.1E1,1E0,3E0,3E0,6E0],"tree_param":{"num_deleted":"0","num_feature":"12","num_nodes":"127","size_leaf_vector":"1"}},{"base_weights":[2.8620526E-1,-4.431077E0,2.4462051E2,-6.343898E0,9.4462715E1,5.0977338E2,5.3899685E1,-9.853184E0,1.2741331E1,6.38437E2,6.26621E1,4.121897E2,1.1453728E3,1.4542854E1,1.9447714E2,2.1138093E0,-1.0602931E1,1.4522648E3,1.0656548E1,5.179619E2,1.4249789E3,1.3996921E2,2.4325975E1,7.91887E2,2.5034644E2,2.2231279E2,1.5226827E3,-3.201856E1,3.2481434E1,5.1014355E2,1.3462213E2,-6.1437826E0,5.0988976E1,-1.1422383E1,-5.6935E0,2.2153566E1,1.7394325E3,7.259022E1,3.886822E0,6.0869373E1,3.9765213E2,2.1621085E2,1.865244E3,3.2316917E1,1.7397148E2,1.8891487E1,3.912405E1,9.5005896E2,2.1999501E2,1.4639198E2,5.1377765E2,4.7740784E1,1.2305876E2,5.1071805E2,2.29245E3,-5.2755237E0,-6.805257E1,5.2424213E1,3.9011285E-1,1.6388364E2,5.8197626E2,-1.7858047E1,1.8214883E2,-4.3915135E-1,8.8181794E-1,1.4564383E0,5.7796607E0,-5.5809295E-1,-8.808226E-1,1.0118126E0,-3.761551E-1,1.0811416E2,4.8434765E1,1.2873517E0,4.9436746E0,-2.4258597E-2,9.5552295E-1,2.3633934E1,2.2513015E0,-1.8912804E0,1.8107094E1,8.4835205E0,1.1233599E2,-4.633029E-1,3.3673031E0,1.1849886E1,3.386741E0,1.013923E0,-6.2277406E-1,2.6328335E0,1.3976983E0,3.6739315E1,7.358828E1,1.3815963E1,-6.902845E-1,1.6517124E1,4.2039638E0,2.1976377E1,7.4011185E1,1.8607826E0,1.9637247E1,7.868757E1,1.4654085E1,1.03970995E1,1.3601749E2,5.55171E-1,-1.1404356E0,-3.7792466E0,-1.9759263E0,8.866706E0,2.3356252E0,-1.7540941E0,5.931261E-1,1.2961141E1,6.9582826E-1,4.0811867E1,1.8999706E1,-1.3093333E0,3.0137997E0,1.2015439E1,4.9321315E-1],"categories":[],"categories_nodes":[],"categories_segments":[],"categories_sizes":[],"default_left":[0,0,0,0,0,0,0,0,0,0,0,0,0,0,0,0,0,0,0,0,0,0,0,0,0,0,0,0,0,0,0,0,0,0,0,0,0,0,0,0,0,0,0,0,0,0,0,0,0,0,0,0,0,0,0,0,0,0,0,0,0,0,0,0,0,0,0,0,0,0,0,0,0,0,0,0,0,0,0,0,0,0,0,0,0,0,0,0,0,0,0,0,0,0,0,0,0,0,0,0,0,0,0,0,0,0,0,0,0,0,0,0,0,0,0,0,0,0,0,0,0],"id":14,"left_children":[1,3,5,7,9,11,13,15,17,19,21,23,25,27,29,31,33,35,37,39,41,43,45,47,49,51,53,55,57,59,61,63,65,67,69,-1,71,73,75,-1,77,79,81,83,85,87,89,91,93,95,97,-1,99,101,103,105,107,109,111,113,115,117,119,-1,-1,-1,-1,-1,-1,-1,-1,-1,-1,-1,-1,-1,-1,-1,-1,-1,-1,-1,-1,-1,-1,-1,-1,-1,-1,-1,-1,-1,-1,-1,-1,-1,-1,-1,-1,-1,-1,-1,-1,-1,-1,-1,-1,-1,-1,-1,-1,-1,-1,-1,-1,-1,-1,-1,-1,-1,-1],"loss_changes":[6.4016148E7,1.0308072E7,5.317234E7,3.5803692E6,1.7846866E7,2.6818512E7,3.388707E6,4.05154E5,2.4902612E7,4.66316E6,2.8950492E6,2.3337664E7,1.9861712E7,4.019579E5,2.463148E6,1.0750765E6,1.708825E5,2.707E6,3.476338E6,3.807437E6,3.321964E6,1.180355E6,5.193597E4,1.010312E7,7.318696E6,1.1911711E6,3.0767272E7,1.2877128E5,2.2205616E5,4.26952E5,8.2939725E5,1.4318856E5,5.403539E5,5.85635E4,2.885942E5,0E0,8.38566E5,1.003338E6,4.975942E5,0E0,1.1692515E6,1.2491364E5,2.8529E6,1.15696695E5,1.6310885E6,2.1165219E4,2.4981125E4,8.91408E6,3.4619962E5,2.2074032E6,4.803064E6,0E0,3.7894562E5,3.9345015E6,1.9949408E7,2.2652912E4,9.2639375E3,1.443945E5,5.4947355E4,6.788122E4,4.94216E5,1.9799389E4,8.6937475E5,0E0,0E0,0E0,0E0,0E0,0E0,0E0,0E0,0E0,0E0,0E0,0E0,0E0,0E0,0E0,0E0,0E0,0E0,0E0,0E0,0E0,0E0,0E0,0E0,0E0,0E0,0E0,0E0,0E0,0E0,0E0,0E0,0E0,0E0,0E0,0E0,0E0,0E0,0E0,0E0,0E0,0E0,0E0,0E0,0E0,0E0,0E0,0E0,0E0,0E0,0E0,0E0,0E0,0E0,0E0,0E0,0E0,0E0],"parents":[2147483647,0,0,1,1,2,2,3,3,4,4,5,5,6,6,7,7,8,8,9,9,10,10,11,11,12,12,13,13,14,14,15,15,16,16,17,17,18,18,19,19,20,20,21,21,22,22,23,23,24,24,25,25,26,26,27,27,28,28,29,29,30,30,31,31,32,32,33,33,34,34,36,36,37,37,38,38,40,40,41,41,42,42,43,43,44,44,45,45,46,46,47,47,48,48,49,49,50,50,52,52,53,53,54,54,55,55,56,56,57,57,58,58,59,59,60,60,61,61,62,62],"right_children":[2,4,6,8,10,12,14,16,18,20,22,24,26,28,30,32,34,36,38,40,42,44,46,48,50,52,54,56,58,60,62,64,66,68,70,-1,72,74,76,-1,78,80,82,84,86,88,90,92,94,96,98,-1,100,102,104,106,108,110,112,114,116,118,120,-1,-1,-1,-1,-1,-1,-1,-1,-1,-1,-1,-1,-1,-1,-1,-1,-1,-1,-1,-1,-1,-1,-1,-1,-1,-1,-1,-1,-1,-1,-1,-1,-1,-1,-1,-1,-1,-1,-1,-1,-1,-1,-1,-1,-1,-1,-1,-1,-1,-1,-1,-1,-1,-1,-1,-1,-1,-1],"split_conditions":[1.0689706E5,4.4416363E4,3.3E2,5.53043E3,6.9E1,-4.2E1,-6.3E1,3.3E1,1.5E1,1.5374872E5,2.12E2,-1.37E2,2.33E2,-1.27E2,-6E1,9.99474E2,1.66897E3,-1.12E2,1.11E2,6E0,3.755422E2,9.397872E-1,1.2477981E5,2.33E2,-5.7E1,2E0,7.274601E2,9.2141956E-1,-8.7E1,4.0178006E2,9.573822E-1,5.941547E-1,9.165042E-1,9.355298E-1,8.7E1,2.2153566E1,6.073098E2,8.093668E-1,2.6114E4,6.0869373E1,-6.3E1,9.658021E-1,-8.9E1,8.404675E-1,-7.8E1,-3.9E1,1.5E1,